tree
version=v3
num_class=1
num_tree_per_iteration=1
label_index=0
max_feature_idx=131
objective=binary sigmoid:1
feature_names=feature_110 feature_98 feature_116 feature_31 feature_11 feature_60 feature_62 feature_8 feature_95 feature_94 feature_128 feature_56 feature_119 feature_26 feature_101 feature_10 feature_87 feature_47 feature_96 feature_73 feature_109 feature_32 feature_3 feature_29 feature_118 feature_21 feature_0 feature_99 feature_103 feature_18 feature_49 feature_100 feature_82 feature_81 feature_90 feature_51 feature_34 feature_127 feature_20 feature_74 feature_102 feature_41 feature_111 feature_45 feature_114 feature_6 feature_16 feature_89 feature_125 feature_83 feature_106 feature_77 feature_37 feature_79 feature_120 feature_57 feature_27 feature_50 feature_123 feature_2 feature_84 feature_9 feature_68 feature_92 feature_121 feature_64 feature_15 feature_71 feature_24 feature_80 feature_35 feature_75 feature_1 feature_55 feature_59 feature_54 feature_66 feature_113 feature_12 feature_13 feature_38 feature_46 feature_112 feature_19 feature_28 feature_107 feature_30 feature_97 feature_48 feature_61 feature_105 feature_40 feature_115 feature_42 feature_78 feature_25 feature_72 feature_104 feature_52 feature_76 feature_53 feature_67 feature_17 feature_93 feature_22 feature_91 feature_86 feature_14 feature_23 feature_126 feature_43 feature_69 feature_44 feature_117 feature_7 feature_39 feature_33 feature_129 feature_108 date feature_122 feature_65 feature_4 feature_5 feature_85 feature_58 feature_63 weight feature_88 feature_70 feature_36 feature_124
feature_infos=[-1.9900956384385784:93.856914837868189] [-2.1755400257751982:123.25397995477972] [-4.2910756582919287:62.525152057620602] [-30.132728078814893:26.594800409154001] [-47.373072742130311:48.685529336758492] [-5.4701381917618068:9.6021720904107752] [-5.1538310342735087:9.4391902748182197] [-39.906470460189063:37.731274522812889] [-5.8539384661955953:40.808374473818382] [-1.0868864233318851:99.470269381134486] [-6.220983586572733:30.799406037831755] [-1.95447412160372:1861.536231152533] [-4.4791662493236215:42.541340788151736] [-49.809393824605635:101.13245272164431] [-3.5013972778674223:79.215861122924906] [-47.708906133656171:47.635871141693656] [-2.3211557664120104:93.593182326826593] [-5.7099090564847845:56.061022501145821] [-2.6273540972318701:77.021765712051447] [-39.943153223513811:72.53751120868526] [-3.5484544028758758:98.540194205013492] [-58.900411945391902:56.861721772019173] [-24.847497980096364:23.775160575275411] [-21.886367009964104:25.806014811581399] [-3.2024939502709331:171.38204771940681] [-56.800922801722528:58.630102586152717] [-1:1] [-1.2577736375645256:132.657757903245] [-0.94018969765059479:252.63150361220383] [-40.712500648966461:38.543818507335615] [-3.3549462778901984:634.68383195738329] [-1.1940128993398349:78.577788910211808] [-170.14470609115591:57.035333564424583] [-132.22913388245072:73.480161186645049] [-3.5726902787184978:54.256412127952892] [-4.6955714839152431:197.91828168370952] [-47.004181660012293:64.45392268412067] [-5.7659817617989324:51.625523967917957] [-50.082892193566749:61.782018477534677] [-80.014401409367977:81.020569455897942] [-4.6608537495365008:66.68253156578443] [-4.5187330315690977:25.844720637781329] [-1.8388651697213425:95.990985109587726] [-2.7966871956613293:45.820225357998297] [-5.106479145820054:60.87951142226926] [-39.621273414234182:12.526495127534492] [-45.785674624606507:93.697915400862698] [-4.0871272766788911:67.53382572329204] [-7.4172049225086019:62.081046100565672] [-41.398826324207569:23.740653571987075] [-1.7816925484470931:271.15280091771501] [-65.60969393385723:39.317007216761041] [-25.887345915664:24.781863109827089] [-144.97313406795831:67.258117293795351] [-4.6308533232541063:45.530728645343075] [-5.3272697176579245:593.68378251486297] [-21.405347770315405:21.888246330707368] [-4.7396872142857447:338.9142651125652] [-5.6382636189218172:77.734975828849301] [-3.0931822488347764:69.687106283597657] [-2.0824882726432721:56.444705184037502] [-34.759561317188485:34.422831449182539] [-6.9593091230420816:9.5734221347776565] [-2.1158895387588768:73.426114819758084] [-7.2167236411610176:88.519340107336163] [-5.7459213718970004:7.3825823239328097] [-40.11132896396569:47.032584901287059] [-2.0501424307577558:59.603705780734813] [-58.691562067124607:67.712928785838187] [-83.399151978741145:56.160932856493396] [-27.325696687140212:34.649197428650197] [-94.150747176594436:61.499336020955155] [-3.1720263259512036:50.607969396471063] [-3.5961054069390337:491.89211692868514] [-5.4767075113010666:1069.1290374609321] [-4.496691356303872:142.02141306091326] [-3.1495081569128587:5.9892815239841291] [-6.018240182402022:75.410455076417406] [-52.849442440390774:49.998019018832217] [-84.114168236353265:86.459949499152572] [-20.641794482998499:19.733052717465693] [-3.1814235116852521:351.36029083727408] [-3.8073393993395532:115.7263744298064] [-31.6272091213478:32.333996479002707] [-43.681918213830954:41.901414185889891] [-5.9841212633472489:47.979021614498116] [-49.267250375037662:46.785328884835977] [-1.3388586541183414:83.748636641811203] [-4.9748356663356113:555.80576072835072] [-4.3106499714869333:8.5681232991804599] [-1.5102236521137329:150.88282212516037] [-19.922263333862727:18.246980381861654] [-2.922626857072181:172.92291841670712] [-6.6567641937629558:20.483154247759586] [-44.410890122543563:34.767124272150085] [-42.407012821353923:50.430695713331652] [-63.057514595029716:44.276549918199422] [-1.6522301101042709:72.707912550595736] [-5.6214793493326187:6.4889895829325495] [-41.005104656077883:65.80477718978463] [-5.3444033989999804:36.875035872880375] [-7.2666286304207732:9.6485197424845381] [-29.780064347855848:31.689899602063988] [-1.7462853305771862:106.5656401327853] [-43.706302984994842:40.096554426841202] [-1.5156134857230641:137.26240337893714] [-1.2945931647626667:88.285316148156852] [-51.386787263426783:58.768784258509349] [-90.07413607518437:93.212419975898996] [-8.215050461097098:32.173068979114461] [-7.1311702838500475:9.8413003714380913] [-2.8108026670077662:36.190480223824224] [-6.7313015699402632:77.718651005151031] [-4.1592697161616288:88.015688939793222] [-27.009350371542762:27.493022731991022] [-11.580249930106516:12.599725891738336] [-30.99897315846961:36.409914093004673] [-5.1290016938749385:45.392467107313088] [-5.4277083418812584:67.005604896073436] [0:499] [-5.2234847431020777:30.38914912586328] [-5.4492040713118062:7.9070627332813475] [-18.681226911340662:17.844236119441078] [-31.558647146572362:13.546260000543823] [-1.2382124108092425:147.70913370044349] [-6.6464683213163971:717.98055749044283] [-5.6134007220196338:9.7751107191847417] [0:161.57977733335267] [-1.6418601675675406:123.45662002238484] [-3.4679927416864125:56.650793259799272] [-50.863532064191617:51.706465386536962] [-3.7518409650688702:30.610467420654732]
tree_sizes=7099 7142 7146 7020 7173 7169 7203 7146 7187 7143 7119 7120 7174 7013 7116 7137 7049 7087 7192 7189 7010 6958 7052 7099 7136 7114 7097 7156 7190 6917 7136 7189 6980 7158 6964 6720 6510 7055 7156 7173 6549 7157 7184 6991 6853 7006 7195 6494 7205 6602 7009 7029 6436 7045 7153 7063 6421 7141 6416 6956 6546 6996 7121 6351 7162 6294 7141 7014 7208 7111 6395 7157 6875 7136 6195 7093 7125 6760 6392 6986 7203 7164 6788 6073 7165 5645 7161 7094 6443 6871 6958 7024 6988 7179 6993 6329 7020 7134 6911 6409

Tree=0
num_leaves=64
num_cat=0
split_feature=56 56 85 38 115 110 119 49 52 43 116 22 54 45 48 110 115 85 57 109 65 54 60 57 65 41 41 110 112 119 73 119 123 8 114 54 5 131 15 110 110 85 43 115 103 80 56 41 38 6 61 55 110 51 77 57 65 110 110 112 11 80 73
split_gain=1536.28 926.986 506.539 464.399 440.04 530.519 354.741 382.995 232.667 293.809 194.41 186.231 215.325 192.569 260.378 239.223 191.278 186.204 184.009 179.23 168.816 175.94 154.038 149.69 144.5 138.593 181.461 135.866 195.914 130.175 122.311 122.19 108.661 104.717 102.616 117.577 96.9274 94.5918 93.8414 86.777 84.4616 81.7472 78.2338 70.3381 69.7748 67.3787 65.0187 70.6395 64.3256 61.7443 59.6916 62.2621 58.0205 56.5374 43.9615 40.711 39.6283 34.5091 30.6811 29.9527 26.8428 21.6088 8.22242
threshold=-0.58129898485372067 0.90341237597702595 3.4246954709770234 2.9973966369349401 5.1439245725119838 7.0040328658261783 276.50000000000006 -1.7772381191298965 -2.3296204224048416 2.5232577083526944 3.0292073229673053 -5.9168675431967879 0.085872380893704678 -1.2784343868299264 2.1697746585246089 7.0040328658261783 -2.6318517443063665 5.5161085633768119 1.3713297075483799 -1.0000000180025095e-35 0.042994095646094348 -0.50195790363482273 3.1096459280739648 0.40462243006395043 1.613727005911185 0.042107966691017275 -0.90776095687801794 -2.3648298924446585 -1.3711071817710867 494.50000000000006 0.25163075466604562 279.50000000000006 -2.5604306373389512 6.0008012093710645 -2.3550115570781398 -1.5044727728148761 4.824806220515681 5.4871142321237665 4.96655246302576 -2.5453571592836197 4.9208479603946804 5.5161085633768119 0.080964485453042759 -5.015103818384957 3.0396340855324731 -0.7561152773999148 -1.6443156164606647 1.0363964594392936 4.5165357873802856 -0.65591301470035057 4.5793188017902482 2.7009714820375015 2.681785281539852 1.5131156352254094 -0.049032665296021828 3.2500088587974409 5.1430415233377174 6.0115612940274508 0.79703415024514457 -1.5510761862958875 4.1445595221903728 -3.9789628087294919 0.46223237013791046
decision_type=8 10 2 10 2 2 2 2 2 10 10 8 8 2 8 2 2 2 2 8 2 10 10 2 2 2 2 2 10 2 10 2 2 2 10 8 2 8 10 2 2 2 10 2 10 2 10 2 10 2 10 2 2 2 2 2 2 2 2 10 10 2 10
left_child=2 3 18 8 6 19 7 22 9 31 23 12 33 14 15 -13 -16 -9 34 41 21 -15 -3 -10 38 26 -14 28 -8 -29 -22 -2 -21 52 35 42 -27 40 44 -11 -36 -6 -1 -37 -5 61 47 55 53 -47 51 -26 -4 -48 -49 -20 -52 -39 -12 -40 -50 -7 -35
right_child=1 4 11 24 5 45 27 17 10 39 58 13 25 20 16 -17 -18 -19 46 32 30 -23 -24 -25 50 36 -28 29 -30 -31 -32 -33 -34 62 37 43 -38 57 59 -41 -42 -43 -44 -45 -46 49 48 54 60 -51 56 -53 -54 -55 -56 -57 -58 -59 -60 -61 -62 -63 -64
leaf_value=0.12900995846879712 0.022800761737809937 0.032633515634241661 0.1096954807342035 0.020488406347542745 0.036168994221284174 0.076854138802211619 -0.058173165188738316 0.022050539538547562 0.016062839798323944 0.090861041611188853 0.019830862615754639 0.0034300036556425759 0.019285035625971635 0.0030182373795675337 0.011887034636287302 0.078320270138461254 0.090424110523621107 0.044900102184750011 0.00087991828216105877 -0.019812241255990761 -0.0088485620522108475 -0.036435653492928655 0.055396978457839308 0.013302634199652105 0.025107911082888082 0.093490871228286476 -0.053164321456410105 0.018079583187594599 0.0083868306660222405 0.039294863086453469 0.0067492340502699737 0.013814628524439657 0.049147668673956563 -0.05258431345525641 0.013758732137979377 -0.012207720121109652 -0.046910571820208302 0.036105798905066516 0.050955215421086733 0.03672815270125885 0.0023420925964980667 0.120746206429988 0.030915356933056304 0.0076043838754380512 0.0033646930281256513 -0.090636705050947008 0.0051874726121125952 0.0082022446693610675 0.024830626243895565 0.027118452703281601 0.037591716294391876 0.043684857579994116 -0.071958191827126636 0.015196954883246397 0.043745410465601028 -0.012324906465112001 0.081888778485182084 -0.00032672982189827296 0.02750088205029616 0.030302300042947976 0.072500173015773314 -0.090693986461293508 -0.10487920025638504
leaf_weight=45.746970400214195 12987.139924764633 10963.523939028382 14.99900668859482 19499.458645507693 55.996291637420654 2.9998013377189627 194.48712006211281 45380.744653567672 191913.54049779475 116.49228528141975 3231.2860076129436 4326.9634462147951 222.73524932563305 700.70359580218792 217.98556387424469 167.98887491226196 255.23309715092182 1393.6577048152685 3263.2838885486126 89.494073241949081 3432.772664129734 1103.1769419461489 1256.166810169816 121743.93748998642 5599.1291968524456 71.245281770825386 318.47890868782997 42693.4226218611 1215.4195086658001 1125.4254685342312 4285.4661943763494 10276.31944924593 2706.8207404017448 12.249188795685766 63099.07125480473 733.70141051709652 25.248327925801277 913.43950733542442 313.22925634682178 3098.5447984188795 2556.3307066261768 191.48731872439384 94.493742138147354 9177.1422424167395 945.9373551607132 24.998344480991364 10231.572412624955 404.72319714725018 470.46884313225746 51.996556520462036 2079.1123104840517 779.1983974725008 11.999205350875853 2705.0708562880754 195.73703728616238 1214.6695583313704 79.494735449552536 110.49268260598183 5094.9125886708498 1774.382491260767 49.4967220723629 107.49288126826286 164.23912324011326
leaf_count=183 51952 43857 60 78003 224 12 778 181535 767705 466 12926 17309 891 2803 872 672 1021 5575 13054 358 13732 4413 5025 487008 22398 285 1274 170785 4862 4502 17143 41108 10828 49 252413 2935 101 3654 1253 12395 10226 766 378 36711 3784 100 40929 1619 1882 208 8317 3117 48 10821 783 4859 318 442 20381 7098 198 430 657
internal_value=0.016279 0.0177668 0.0097279 0.0163374 0.0228156 0.0451936 0.0221218 0.0252671 0.0156943 0.0212425 0.015238 -0.000659434 -0.028825 0.000975639 0.0108025 0.00622886 0.0542464 0.0227313 0.0113996 0.0513856 -0.00415155 -0.0211101 0.0349736 0.0149915 0.0235505 -0.0112275 -0.023348 0.0180191 -0.000794672 0.0186245 -0.000188059 0.0188313 0.0469407 -0.0839736 0.0127296 0.00692988 0.0567537 0.0136038 0.0209659 0.0386896 0.0133142 0.10161 0.0629141 0.00613769 0.0196962 -0.0553323 0.00589362 -4.27357e-05 0.00813395 -0.0111137 0.0303726 0.0273773 0.0289605 0.00728047 0.0197885 -0.00270196 0.039223 0.0321744 0.0245243 0.0334011 0.0293684 -0.0861452 -0.10125
internal_weight=0 486986 110597 379532 107454 3231.29 104223 58994.1 348462 26478.5 321984 15331.5 841.194 14490.3 4968.17 4494.95 473.219 46774.4 95265.4 3043.8 9522.12 1803.88 12219.7 313657 31069.9 637.708 541.214 45228.8 1409.91 43818.8 7718.24 23263.5 2796.31 203.487 76730.4 10051.1 96.4936 66679.3 22533 3215.04 65655.4 247.484 140.241 9910.84 20445.4 187.488 18535 5078.41 13456.6 76.9949 8536.93 6378.33 26.9982 12936.6 600.46 4477.95 2158.61 1023.93 8326.2 2087.61 519.966 110.493 176.488
internal_count=2390491 1948074 442417 1518229 429845 12926 416919 235992 1393941 105921 1288020 61330 3365 57965 19874 17981 1893 187110 381087 12176 38091 7216 48882 1254713 124288 2551 2165 180927 5640 175287 30875 93060 11186 814 306942 40207 386 266735 90138 12861 262639 990 561 39646 81787 750 74145 20315 53830 308 34150 25515 108 51750 2402 17913 8635 4096 33307 8351 2080 442 706
shrinkage=1


Tree=1
num_leaves=64
num_cat=0
split_feature=56 56 38 85 85 126 126 93 34 119 49 52 43 6 116 88 119 89 80 57 15 22 41 93 54 110 110 112 45 65 64 93 119 106 110 48 110 41 110 119 123 126 115 93 6 106 125 118 73 62 41 131 49 103 34 65 91 110 22 90 126 123 51
split_gain=1365.35 886.326 485.146 463.704 401.864 244.512 281.257 237.987 224.205 220.205 231.666 208.222 242.432 184.478 182.096 176.885 175.256 162.656 167.323 150.82 145.593 137.435 130.578 200.622 235.601 187.98 129.096 125.307 122.908 113.381 105.704 148.27 102.97 97.9251 93.7324 89.5425 89.1711 78.5914 77.0487 72.1976 66.2783 94.2557 63.0224 60.0699 59.4228 63.2849 50.8423 50.3239 50.0022 49.9283 47.2007 46.1983 45.4895 44.8883 44.2075 42.191 40.4831 40.3361 37.2655 26.0942 25.2009 23.7778 22.7532
threshold=-0.84202933016604231 0.84886838681315724 2.9973966369349401 3.4246954709770234 4.085640558210077 -0.4578180565239271 0.079523887977100777 5.2818464539096119 3.2055111840179547 276.50000000000006 -1.7772381191298965 -2.3296204224048416 2.5232577083526944 4.6318052638579816 2.698127909534429 1.3179938179700157 261.50000000000006 -0.94193957897163727 6.2559300131109046 2.3780282355426525 4.3441035647657396 2.9585923048340828 -1.5763655568191035 4.3969988534427094 1.2732980928266655 7.0040328658261783 2.6123063184118451 12.898843335040567 -2.3906050340016525 -0.96994834826924936 -4.0519372794179853 2.9588601919677777 279.50000000000006 0.56588360592492493 -2.2562711960792097 1.020072845390688 7.0040328658261783 -2.5360752380800933 -2.5453571592836197 498.50000000000006 5.3087230611026275 2.7165501540398087 -5.015103818384957 4.2360076174592551 6.4390529612537728 1.38105371416517 25.864436451628134 6.2164295661211613 -0.85992250555811001 2.3406442350329448 0.385400397743631 5.4871142321237665 1.7969684014746827 7.7687572283998465 1.5246087142989122 3.0654818190960778 -4.2942988783960461 0.79703415024514457 -0.29796827451549712 9.897109750231067 5.5587363045924034 5.3087230611026275 -0.025955453518193169
decision_type=8 10 10 2 2 2 2 2 10 2 2 2 10 2 10 2 2 2 2 2 10 10 2 2 10 2 2 10 2 2 8 2 2 10 2 10 2 2 2 2 2 2 2 2 2 8 2 10 10 2 2 10 2 10 10 2 2 2 10 10 2 2 2
left_child=3 2 11 15 9 30 8 -8 -7 10 16 12 32 22 19 36 -3 48 28 -13 29 -12 27 25 -25 -24 34 49 -19 53 58 -32 -2 51 -11 -20 40 -29 -14 -28 42 -42 -1 54 45 -22 55 -31 60 -5 -45 52 -17 -4 -38 -35 -50 -16 -6 -46 -15 -53 -48
right_child=1 4 20 13 5 6 7 -9 -10 26 21 14 38 17 57 33 -18 18 35 -21 44 -23 23 24 -26 -27 39 37 -30 47 31 -33 -34 46 -36 -37 43 -39 -40 -41 41 -43 -44 50 59 -47 62 -49 56 -51 -52 61 -54 -55 -56 -57 -58 -59 -60 -61 -62 -63 -64
leaf_value=-0.021110424881006739 0.0060568748793306789 0.014071715935078541 0.0013344417911044127 -0.056194650207925252 -0.12512240227718388 0.017718136412642381 0.019487861530566315 -0.032580671351118265 0.068120551018624076 -0.014511043045228947 0.0043563030463010972 -0.001021209526166894 0.070151559460368815 -0.024716547686065689 0.0022247057449787991 -0.0091702347961605864 0.049560454409302832 0.070475197630180661 0.029814323291546464 -0.0051642996400819655 0.019380963894049991 0.014240223489510661 -0.021226552179773359 0.04761859702450516 -0.023243787554089963 -0.079833324093867911 0.00664420254931887 0.036029692737623534 -0.0053894281393713096 0.0089612901624199822 0.0034855821906563211 -0.041812222423623348 -0.0024250665194744435 -0.017378671175894162 0.00038829060567569331 0.11747697213843238 -0.025627592922959953 -0.10953411266787896 0.018792332577208127 0.075811464705388146 -0.00040816848138093651 0.063710787932495586 -0.0032545813602416979 -0.025147454830436154 0.039298042791083426 0.0022958615475295774 -0.0083634680769240459 -0.027922870735065969 0.072024588560375663 -0.0069517172454453052 0.062974025597729549 0.0089605236817443378 0.0024157777489351756 -0.03118216493193306 -0.087965961639968226 -0.0049352274606148548 -0.065360083609909858 0.010016794737283329 0.12181578681345177 0.097178096308626741 0.081948601921362829 0.075522924292222626 0.062856656089878046
leaf_weight=761.46724712848663 12255.407348394394 8832.1859347373247 12844.756577640772 146.98033584654331 2.4993706792592993 570.08437803387642 6829.5959683656693 349.85252501070499 810.04710885882378 1685.5377772450447 41824.510225281119 296795.54495991766 115.01246179640293 19.499618768692017 4295.8703054189682 8289.5090641975403 561.08238755166531 87.170529454946518 119.74858872592449 37523.361917510629 3510.6430496871471 6113.2787053138018 8980.6117853820324 347.52757290005684 364.40213733911514 212.39999008178711 12488.458844482899 15.498615786433218 1136.9453764557838 16111.755754396319 1388.7054388225079 341.28770032525063 9738.0356321334839 7605.0117971599102 31850.109602808952 69.999195069074631 77.49970917403698 151.73451378941536 2982.9938445091248 57.478169307112694 245.7380772382021 134.4914777725935 47336.803239405155 102.2490646392107 160.1756064593792 1073.2446378022432 27.248494699597359 141.47449991106987 8.4999032318592054 166.48607896268368 29.749657973647118 480.65650822222233 1520.4332669228315 162.99930129945278 97.249198257923126 1195.4488878548145 187.74709089100361 6088.2299678325653 31.745831444859505 36.205678075551987 14.749711632728575 21.246432051062584 45.24775293469429
leaf_count=3046 49028 35339 51384 588 10 2281 27328 1400 3242 6743 167318 1187250 461 78 17185 33159 2245 349 479 150100 14046 24458 35928 1391 1458 850 49959 62 4548 64457 5557 1366 38954 30421 127412 280 310 607 11936 230 983 538 189356 409 641 4294 109 566 34 666 119 1923 6082 652 389 4782 751 24357 127 145 59 85 181
internal_value=0 0.00115714 -0.000195091 -0.00748617 0.00595842 0.0175422 0.0218442 0.0169506 0.0473011 0.004802 0.00734935 -0.000842606 0.00457286 -0.018629 -0.00123681 -0.00551401 0.0161915 0.000533449 0.00835257 -0.00148622 0.00683895 0.00561675 -0.021663 -0.020142 0.0113476 -0.0225806 0.00163279 -0.0530031 1.29685e-05 0.00521136 -0.00333012 -0.00545063 0.00230133 -0.010523 -0.000360566 0.0621536 -0.00354424 -0.0960437 0.020699 0.00696109 -0.00333484 0.0222714 -0.00353727 -0.0366379 0.0168017 0.0153808 -0.0152653 0.00864024 -0.047429 -0.0300411 -0.00528678 -0.00644232 -0.00737453 0.000926978 -0.0603194 -0.0156884 -0.0594096 0.00679323 0.103793 0.0499691 0.0212195 0.0117782 0.0360878
internal_weight=0 517572 403836 80000.1 113736 10323.8 8559.58 7179.45 1380.13 103413 57331.1 369794 25091.4 12030 344703 67970 9393.27 1644.36 1413.86 334319 34041.3 47937.8 10385.6 9904.94 711.93 9193.01 46081.6 480.7 1224.12 29261 1764.24 1729.99 21993.4 19184.8 33535.6 189.748 48785.2 167.233 3098.01 12545.9 48478.5 380.23 48098.3 306.748 4780.27 4583.89 8872.96 16253.2 230.496 313.466 131.999 10311.8 9809.94 13007.8 174.749 8800.46 196.247 10384.1 34.2452 196.381 34.2493 501.903 72.4962
internal_count=2390491 2070471 1615456 320020 455015 41311 34251 28728 5523 413704 229360 1479271 100379 48128 1378892 271892 37584 6578 5656 1337350 136185 191776 41550 39627 2849 36778 184344 1923 4897 117059 7060 6923 87982 76742 134155 759 195150 669 12397 50189 193923 1521 192402 1227 19126 18340 35493 65023 922 1254 528 41249 39241 52036 699 35203 785 41542 137 786 137 2008 290
shrinkage=0.0615734


Tree=2
num_leaves=64
num_cat=0
split_feature=84 56 85 115 110 38 119 112 52 43 17 34 110 41 22 54 93 112 45 101 85 3 34 116 41 119 34 43 34 63 41 41 119 41 41 38 15 5 49 110 123 8 122 65 48 0 45 72 43 45 74 91 41 2 114 80 125 41 91 65 107 112 73
split_gain=1207.21 711.339 424.084 369.414 451.397 331.29 227.352 273.283 220.655 281.657 203.496 184.523 158.384 150.779 146.153 187.765 166.475 180.676 231.069 153.176 150.656 143.657 137.198 137.127 131.79 127.481 121.309 162.566 117.736 115.171 104.277 165.228 95.7597 91.7575 87.2328 82.5088 80.9376 79.3933 77.9074 72.4768 71.9138 71.4671 71.1384 61.5653 60.0522 58.4156 53.2984 52.241 48.6157 68.2313 47.612 47.15 45.1121 73.5807 53.8009 38.2233 37.4741 35.1428 34.0694 33.4224 15.3008 8.72212 5.40488
threshold=-0.86941396825906603 1.1536179019487289 3.9001272292901379 5.1439245725119838 7.0040328658261783 3.1076807306576621 276.50000000000006 4.9622729663545764 -2.3296204224048416 2.5232577083526944 2.3738948265109765 1.7972512557366331 -0.14796503204365299 -0.064864225697060948 -5.9168675431967879 0.085872380893704678 5.2818464539096119 3.2577646182644884 -2.6360702773620672 4.1501555215015511 10.711824682310441 -2.8331603397946679 0.29499942155366243 3.0292073229673053 -0.42726512224429564 279.50000000000006 8.0845699628854977 0.92140888808740362 10.491511680512565 0.14034582335350079 0.042107966691017275 -0.90776095687801794 494.50000000000006 0.084921084618553924 7.7401121296828839 3.2376888731113698 3.1672200518207849 4.824806220515681 -2.4462617452463564 6.4367359615064244 5.3087230611026275 6.0008012093710645 -0.22620672415805437 3.9805322759622817 -3.9669085051319075 7.3433691551215139 -2.5058006564872324 8.1539993348035189 5.6317536218629636 -2.7931791952506448 13.70081864528751 -4.2942988783960461 0.83034800896893912 5.0873559287082779 3.3383634282391941 -0.7561152773999148 2.7109344005864298 0.49307765013566152 -6.533948007864705 -0.042236721810271875 4.4903210168844145 4.9622729663545764 0.46223237013791046
decision_type=8 10 2 2 2 10 2 10 2 10 2 10 2 2 8 8 2 8 2 2 2 8 8 10 2 2 10 10 10 10 2 2 2 2 2 10 10 2 2 2 2 2 10 2 10 10 2 2 8 2 10 2 2 10 10 2 2 2 2 2 10 10 10
left_child=2 5 10 6 13 8 7 12 9 25 35 -9 -3 24 15 41 17 18 -16 -19 28 39 36 -23 -5 -2 32 -28 -18 47 31 -17 -8 -15 -11 38 59 -32 42 -10 45 58 -1 -38 61 -37 -40 57 50 -50 -31 -22 53 -24 -54 -46 -42 -12 -4 -7 -49 -6 -43
right_child=1 3 14 4 44 22 26 11 21 34 29 -13 -14 33 16 30 20 19 -20 -21 51 23 52 -25 -26 -27 27 -29 -30 48 37 -33 -34 -35 -36 40 43 -39 46 -41 56 62 -44 -45 55 -47 -48 60 49 -51 -52 -53 54 -55 -56 -57 -58 -59 -60 -61 -62 -63 -64
leaf_value=0.0028622575934507096 0.006212672199794619 -0.00038524888668130144 0.10456595839055888 0.032034881168465777 -0.0025935631557716292 0.0035642829150530648 0.0019616905313358966 0.0088507416488170787 -0.011170379805918094 0.021889019744641403 -0.0058964083332773377 0.038038192394196729 0.0091061185946719938 0.092087737254161112 0.026081909652556742 0.0074398655940321693 -0.010432071230866712 -0.032548609224642269 -0.013534224301582973 0.00039139963995131287 -0.12356122930178587 -0.00075060918284265222 0.0012502436259907582 0.006677341287956523 -0.0087779818886538716 -0.0020674210424614287 -0.072544626139877777 -0.0055652221366706243 0.10542332413037853 -0.017275994114724271 0.074702472602738809 -0.069401407214887287 0.023225820583663452 0.043732492474533501 -0.041965293879432791 0.0029261563839160665 0.014695682232745647 -0.057441238114013436 0.003412973446567128 -0.052385786732600151 0.019852509152764285 -0.068318848868163862 -0.01275855989622899 0.040661608318518623 -0.098547881642835025 -0.019635679161800711 -0.0035738011222751775 0.013117851923255109 -0.092328335789248053 0.057142334204811809 0.022195858566141737 0.11639418104279511 0.0081102425758429689 -0.022433007247691452 0.057719449871132672 -0.039486371012648777 0.088146512671627833 -0.028312695023607542 -0.067508761672430584 0.010526103963886016 0.051234201635308597 0.12034300863932333 -0.11303383081627316
leaf_weight=1359.4326637834311 16052.523217320442 8278.7316706925631 8.9819098114967364 1820.9056758135557 3.238231882452963 4926.978529587388 32560.482902064919 1438.1205698102713 3246.0854288488626 3685.5352959781885 7794.619520932436 1914.2696105539799 34208.759119108319 209.68863283097744 604.16898013651371 183.97978213429451 229.1413566172123 3119.174458310008 7335.3705927282572 646.0774208009243 3.2478356212377539 321541.25920379162 9093.1088720858097 9707.0533999800682 359.12915486097336 12569.556882888079 186.93551090359688 518.28053426742554 38.901343747973442 7414.1813282072544 61.35934990644455 250.59804597496986 823.22432787716389 512.18771515786648 82.937461659312248 8534.5147702991962 5281.3659635037184 23.972095489501953 4398.4429172724485 170.24176131188869 71.705987900495529 10.985031485557554 5912.8318074196577 370.47516514360905 103.46526509523392 458.44892965257168 70313.778795614839 274.46004772186279 13.998460441827772 66.982225611805916 117.6977654248476 70.400850623846054 1774.0491620600224 526.13455295562744 86.942186996340752 69.415915802121162 52.959340885281563 274.49038727581501 8.4816813170909864 5570.204221457243 46.725786343216896 6.746335968375206 152.88612192869186
leaf_count=5438 64226 33124 36 7291 13 19711 130258 5755 12985 14756 31180 7664 136879 840 2418 736 917 12482 29347 2585 13 1286239 36380 38838 1438 50281 748 2074 156 29659 246 1004 3295 2053 332 34142 21134 96 17595 681 287 44 23653 1483 415 1834 281266 1098 56 268 471 282 7098 2105 348 278 212 1098 34 22288 187 27 614
internal_value=0 0.0013863 -0.00552517 0.0065672 0.0274753 0.000296604 0.00576027 0.00859216 -0.000192827 0.00465984 -0.00426158 0.0255173 0.00725672 0.033388 -0.0161417 -0.0434678 -0.014551 -0.0157878 -0.0105196 -0.0268965 0.0278135 -0.000662492 0.0067987 -0.000532937 0.0253116 0.00257642 0.00195219 -0.0233198 0.00638215 -0.0106652 -0.0246512 -0.0368704 0.00248605 0.0577786 0.0204837 -0.00313671 0.010457 0.0375794 -0.00375466 -0.0132242 0.00241983 -0.0974175 -0.0098385 0.0163977 -0.0663535 0.00177599 -0.00316248 -0.00568961 -0.016149 0.0313046 -0.0166592 0.105812 0.00165258 -4.51365e-05 0.0104279 -0.0748333 0.0488646 -0.00665895 0.0209931 0.00725849 0.018663 0.0804718 -0.110036
internal_weight=0 477698 119853 83013.6 3084.78 394684 79928.8 45839.9 367055 32390.6 107105 3352.39 42487.5 2901.91 12747.7 701.244 12046.5 11704.8 7939.54 3765.25 341.691 334665 27629.3 331248 2180.03 28622.1 34088.9 705.216 268.043 16003.2 519.909 434.578 33383.7 721.876 3768.47 91102.1 16149 85.3314 81984.5 3416.33 9117.63 181.335 7272.26 5651.84 182.866 8992.96 74712.2 8390.3 7612.86 80.9807 7531.88 73.6487 11480.2 9619.24 1860.99 172.881 124.665 8069.11 17.4636 10497.2 321.186 9.98457 163.871
internal_count=2390491 1911037 479454 332152 12355 1578885 319797 183422 1468338 129595 428444 13419 170003 11622 51010 2810 48200 46832 31765 15067 1368 1338743 110547 1325077 8729 114507 136375 2822 1073 64017 2082 1740 133553 2893 15088 364427 64616 342 327952 13666 36475 728 29091 22617 733 35976 298861 33563 30454 324 30130 295 45931 38485 7446 693 499 32278 70 41999 1285 40 658
shrinkage=0.0615734


Tree=3
num_leaves=63
num_cat=0
split_feature=56 56 38 85 115 110 43 34 123 122 7 123 119 119 3 119 131 119 41 88 6 30 93 41 47 123 110 112 2 119 126 8 110 81 43 91 106 93 65 64 59 3 83 123 126 119 14 48 119 40 119 43 22 55 102 65 80 103 112 47 112 18
split_gain=1078.39 702.654 394.299 377.903 336.271 408.151 277.964 222.654 237.437 194.695 174.579 169.29 242.43 166.751 164.584 163.566 163.454 155.456 151.189 150.408 140.313 138.842 130.355 335.964 175.516 158.627 122.765 111.451 108.179 105.677 102.694 102.276 86.7819 85.6896 101.881 89.6737 83.028 80.7058 78.47 71.9769 66.917 65.8461 62.0148 58.9094 97.8614 58.0668 55.2254 53.6309 52.0384 47.3791 46.4083 45.0929 45.0018 42.3867 42.0695 40.1089 34.3057 23.6461 20.2709 8.76721 7.76387 0.156595
threshold=-0.87469634920082406 0.84886838681315724 2.6116917303042904 4.3061333981113608 5.1439245725119838 7.0040328658261783 1.5659703938040874 8.0845699628854977 2.0791329538504519 0.55060325162242407 0.47415508995586847 -1.2032307152887782 45.500000000000007 388.50000000000006 1.6469577605883809 494.50000000000006 0.05073404376649198 282.50000000000006 6.7490719184583119 1.3179938179700157 5.616056725827435 0.96669711330373109 3.9404914327091505 -0.35394885039375595 2.0781014324672911 -4.6135457467288106 -2.109697166422253 1.3365820771539689 1.7468207140402978 497.50000000000006 -0.74579738994914846 6.5804836286021873 7.0040328658261783 9.6865895682084382 0.9538433536848212 -2.188246138917092 0.56588360592492493 4.2360076174592551 0.50294601050293564 -2.6641825300591879 5.2456009957902898 -0.28961026760817749 4.6824808317473661 5.3087230611026275 2.7165501540398087 257.50000000000006 5.2348317216240048 -3.9669085051319075 45.500000000000007 5.4916773944337445 63.500000000000007 0.71633114070762172 -2.472402408091964 25.051016009104803 2.288639115147546 3.1758415269417912 -0.7561152773999148 6.4169219345178714 -1.112219925113904 2.0781014324672911 4.9622729663545764 0.65011815014607921
decision_type=8 10 8 2 2 2 10 10 2 10 10 2 2 2 10 2 8 2 2 2 2 2 2 2 2 2 2 10 10 2 2 2 2 2 10 2 10 2 2 10 2 10 10 2 2 2 2 10 2 10 2 10 8 2 10 2 2 10 10 2 10 8
left_child=3 2 11 19 6 16 7 13 -9 29 40 12 18 -3 21 -14 31 -11 -2 32 22 -13 26 25 -25 -24 27 -5 -28 -8 -18 -6 43 34 45 -36 49 51 46 -39 41 -4 -40 48 -45 -22 -12 60 -1 54 -51 -34 -16 55 -21 -38 -49 -42 -55 61 -7 -35
right_child=1 4 10 20 5 47 9 8 -10 17 38 14 15 -15 52 -17 30 -19 -20 36 33 -23 23 24 -26 -27 28 -29 -30 -31 -32 -33 37 59 35 -37 53 39 42 -41 57 -43 -44 44 -46 -47 -48 56 -50 50 -52 -53 -54 58 -56 -57 -58 -59 -60 -61 -62 -63
leaf_value=-0.007997870971928495 0.011943858285542451 0.0051417324775955928 -0.0015623567964870523 0.073406385828400519 0.0095607323360937524 -0.002434239135035975 0.017723115073090216 -0.063907242950945173 0.015710090738228783 0.010599247831768537 0.0063628431918484277 -0.0010125415820271461 -2.7186827012473312e-06 -0.00094956491476841246 0.035258229377857428 0.035569899032857177 0.0062790585679241145 -0.0099221390547390171 -0.046587364814200193 -0.0073301625030472118 -0.0042603425783767314 -0.0041998974125795696 -0.058833006513883387 -0.091355468495159547 0.10322902716271865 0.0033818158874636124 -0.01121517461764974 -0.029455380383132359 -0.029526930418223647 0.094848662279697932 0.032805437372564035 0.09207401875368032 -0.035431838443583351 0.12322554348900641 -0.068536610476583215 0.0020045019864807184 -0.016025774010376897 0.095466188885688488 0.010876889130487389 -0.019006240934395718 0.0095205817796010419 0.0077612193295054808 0.023300693476982694 -0.0034172870709416486 0.056906912798763733 0.073533374995129505 -0.039524487046232723 -0.092788368279045574 -0.0025597861977692342 -0.096124778420031295 0.027335884746756089 -0.094728578095006441 0.0049944133129053723 -0.038658970192038365 0.0040907266043881604 -0.0037777187911598115 -0.037378088350920699 -0.029046984977929104 0.049466106451582788 0.0090376577136503169 0.11367949217336157 0.11295395095494684
leaf_weight=7992.3650172501802 9756.0330633074045 72039.807740718126 16323.978101477027 92.178986415266991 74.838557496666908 3.2377569079399091 8813.9392100721598 375.59722301363945 228.34638351202011 4601.6168546229601 12638.139060854912 223410.15534648299 47319.863230109215 22317.024521276355 189.13201743364334 495.18680110573769 767.47734270989895 2011.2156756222248 170.2327448874712 8553.266184553504 56.477693051099777 67459.354430273175 233.55878353118896 19.969423934817314 146.54892782866955 464.13617359101772 1592.1938287466764 70.463253870606422 5276.6294199228287 67.87353079020977 1982.9476863443851 238.29871238768101 120.88075599074364 7.4970289915800103 84.965894907712936 348.80560728907585 7993.520376637578 25.221894130110741 7379.130169570446 119.44788283109665 3826.6646510213614 3484.8547744750977 1919.492063075304 270.43145693838596 163.65782041847706 102.209204018116 100.22379277646542 108.21994012594223 40365.648736357689 41.476305246353149 15.994589388370512 81.339199244976044 12358.740806862712 11.988971799612044 1426.770083501935 1160.8716249763966 69.609445422887802 61.234617203474045 56.686953946948051 3.2486012876033774 6.7031835168600082 22.561598554253578
leaf_count=31971 39033 288246 65307 369 300 13 35283 1504 914 18423 50567 893691 189302 89283 757 1981 3075 8047 681 34215 226 269848 936 80 588 1861 6373 282 21132 272 7952 960 484 30 340 1396 31981 101 29530 478 15312 13942 7686 1082 656 409 401 437 161470 166 64 326 49446 48 5708 4644 279 245 227 13 27 91
internal_value=0 0.00100554 -0.000190285 -0.00680505 0.0052847 0.0248015 0.00471021 0.0034625 -0.0338045 0.0123569 0.0051961 -0.000872365 0.00218352 0.00370104 -0.00145391 0.000365682 0.0302025 0.00435791 0.0109401 -0.00528173 -0.0190324 -0.00175176 -0.0212567 0.00131038 0.0798938 -0.0174451 -0.0240303 0.0288425 -0.0252823 0.0183125 0.0254035 0.0723537 -0.00347404 0.00903323 0.00363077 -0.0118129 -0.00989364 -0.0341624 0.00914103 0.000951013 0.00152748 7.78867e-05 0.0134415 -0.00325586 0.0193258 0.0458461 0.00600181 -0.0633182 -0.00345857 -0.00601842 -0.0617647 -0.0592828 0.00545057 -0.0141111 -0.0056974 -0.0144726 -0.0710986 0.00891314 0.0340818 0.105131 0.0758613 0.115516
internal_weight=0 520599 406892 76921 113707 3251.33 110455 94960.8 603.944 15494.6 45733.7 361159 57741.3 94356.8 303417 47815.1 3063.56 6612.83 9926.27 68399.6 8521.44 290870 7895.68 864.213 166.518 697.695 7031.47 162.642 6868.82 8881.81 2750.43 313.137 49139 625.766 592.458 433.772 19260.6 346.89 22037 144.67 23696.7 19808.8 9298.62 48792.1 434.089 158.687 12738.4 187.77 48358 10037.5 57.4709 202.22 12547.9 9223.07 9980.04 9154.39 177.829 3887.9 68.6759 33.3072 9.94094 30.0586
internal_count=2390491 2082744 1627729 307747 455015 13043 441972 379947 2418 62025 182990 1444739 230997 377529 1213742 191283 12287 26470 39714 273621 34126 1163539 31621 3465 668 2797 28156 651 27505 35555 11027 1260 196568 2505 2371 1736 77053 1389 88184 579 94806 79249 37216 195179 1738 635 50968 756 193441 40153 230 810 50203 36900 39923 36625 716 15557 275 134 40 121
shrinkage=0.0615734


Tree=4
num_leaves=64
num_cat=0
split_feature=56 56 34 110 61 115 110 49 119 45 110 43 91 45 41 6 6 109 97 5 30 44 85 112 34 35 65 123 93 114 93 38 91 65 3 41 119 110 74 6 110 100 123 3 81 43 43 80 111 41 106 49 6 80 6 126 16 123 41 91 93 80 43
split_gain=959.949 571.555 336.465 335.022 298.947 289.474 353.433 201.478 169.502 163.743 166.22 170.24 160.735 240.704 183.886 205.094 165.15 157.495 154.008 146.545 140.037 134.35 132.43 124.567 200.426 122.233 118.475 118.147 117.727 160.484 114.198 110.848 110.387 105.544 105.07 100.219 94.6624 94.3035 92.7399 88.1952 84.9744 87.5526 84.411 68.3034 68.1083 98.2484 105.432 67.6749 65.7188 61.3881 56.9547 47.9238 60.6702 47.6577 51.1995 43.8531 37.7223 33.9974 33.7221 27.5027 35.0337 19.1469 18.7803
threshold=-0.58129898485372067 1.1536179019487289 2.2998488551665601 1.0000000180025095e-35 2.2045498446565248 5.1439245725119838 7.0040328658261783 -1.8300415264704315 317.50000000000006 -4.4417450020888305 -3.5657758764619492 2.1502144524088167 -4.9986839607728077 -0.60764178759097209 -0.86639457734278935 -1.0591829011230645 6.4390529612537728 -1.7651506164887703 9.4215159908657231 1.6679475870667673 0.96669711330373109 6.0267814975954153 5.151641373190162 -0.84759828711762275 6.7730344098288571 0.43767793978126163 3.9117774511970098 1.2222516365138507 -1.489894956999706 2.4797846978868936 2.2867121437485092 5.5747401403537591 -4.0404556631594239 2.0597366741722114 -3.2519017576450442 -0.46455692251696484 494.50000000000006 -3.2368858341490987 -0.070639399835525848 4.4995749831527059 4.9208479603946804 3.9879706156221761 -2.8348967285753308 -0.57844726463899487 0.48971460510167342 10.175590875973535 7.0785740966330248 2.2607796037541612 -0.86132268703568127 1.1072444961676327 1.2687785411762478 1.8504999817247818 2.7189041955793392 -0.7561152773999148 -0.65591301470035057 1.8868460413059363 3.8173965070186147 -5.3863621290347288 0.61201740663029891 -4.6012078713064142 -1.1750536890989316 -3.9789628087294919 -1.0429289360465599
decision_type=8 10 10 2 8 2 2 2 2 2 2 10 2 2 2 2 2 8 10 2 2 10 2 8 10 2 2 2 2 10 2 10 2 2 8 2 2 2 10 2 2 2 2 10 2 10 8 2 2 2 8 2 2 2 2 2 8 2 2 2 2 2 10
left_child=2 4 25 23 9 7 21 8 33 10 11 -2 14 16 15 -5 -14 -12 22 -20 34 42 -9 24 32 40 -22 -16 29 -25 -23 39 -4 -3 -11 -30 -10 -26 -15 43 41 48 -7 -6 59 46 -46 -41 -1 50 -33 52 -42 61 -55 -43 -51 -53 -47 60 -27 -8 -61
right_child=1 5 3 12 31 6 53 18 36 20 17 -13 13 38 27 -17 -18 -19 19 -21 26 30 -24 28 37 44 -28 -29 35 -31 -32 49 -34 -35 -36 -37 -38 -39 -40 47 51 55 -44 -45 45 58 -48 -49 -50 56 -52 57 -54 54 -56 -57 -58 -59 -60 62 -62 -63 -64
leaf_value=-0.0055322432799581054 0.029819312006889191 0.021074325352369676 0.038327732145788482 0.042398383748020907 -7.6051776586190232e-05 -0.043490906176980385 0.067248085125694954 0.0033340767095568135 0.0011700807790943912 -0.014635575285845045 0.044830728557502211 -0.096481053499280545 -0.0085739465076229773 -0.03829168949255797 -0.055029712505160651 -0.029875334603768833 0.08072255358562562 0.009503756827301018 0.016134115440332233 -0.072037740193390959 -0.0038439811455961773 0.074202475609267737 0.021605715002178682 -0.0027921465916803303 -0.12281836503161411 0.021368724149025613 0.0024431888332494332 0.023432863472950313 0.0093590180978060569 0.038974354009917646 0.026102358919046952 0.016086058210345894 -0.008953257076191868 0.0084951533112025881 0.00021348504742801531 -0.025505353405246942 0.0459407701999167 0.087299455299727616 -0.019900009230548386 0.0040351484671506607 -0.017763248206969624 0.0036898424742055338 0.024018074576028645 0.0047921172558603661 -0.0094955207454697765 -0.11386388960692265 0.058890319017370268 0.021202130826041544 -0.00053437400731774006 0.053002820139312443 0.00032926841381267219 -0.053110254057656216 0.0040035149932101171 -0.095460472489278234 0.012490165875686203 0.018007246156000058 -0.016638289426660815 0.0078995911320750775 -0.020990429496547697 -0.015847200397954529 -0.0034647187259671821 -0.090749211056198584 -0.0036858786251234179
leaf_weight=13799.728959038854 66.237383022904396 6165.861031755805 273.65364694595337 203.92798811197281 17854.565683111548 72.690680608153343 2.9938420653343192 61995.888079628348 5424.9834829121828 1819.1738074570894 564.74072727560997 103.97322385013103 7734.9159409701824 1365.5066092461348 1051.9299679845572 551.26274389028549 79.328296795487404 3131.4975257813931 112.56111836433411 195.74561999738216 68485.08939807117 404.83654625713825 1541.2798961102962 4809.0294687002897 8.4994486123323423 374.20496244728565 13623.800092771649 78.16536945104599 399.63897588849068 376.0632296949625 347.99190378189087 3246.8375865072012 592.65703263878822 4287.0815194249153 261942.32230256498 1435.0551661550999 185.16217832267284 171.54137654602528 4353.4527942240238 1657.1970793008804 2612.5132398605347 3578.9542128294706 2066.2500521093607 28161.847123265266 15507.683897852898 45.467510491609573 85.945895493030548 1834.2456055283546 35988.260402604938 213.2865649163723 1187.9302991330624 36.667389839887619 596.29284620285034 24.546033531427383 51.828740492463112 1048.7382255494595 34.219735473394394 622.73836588859558 21.99167563021183 501.96831785142422 507.43534752726555 101.34325128793716 11762.306906208396
leaf_count=55202 265 24697 1095 817 71434 291 12 248070 21706 7277 2262 416 30967 5466 4221 2208 320 12531 451 784 273964 1634 6177 19243 34 1497 54500 313 1599 1505 1399 13004 2371 17169 1047873 5742 743 687 17427 6631 10454 14318 8298 112677 62042 182 344 7341 143964 855 4755 147 2386 99 208 4197 137 2492 88 2008 2030 414 47051
internal_value=0 0.00117621 -0.00517896 -0.0117197 0.000220035 0.00583058 0.024377 0.00511747 0.0112815 -0.000439334 0.0121617 -0.0473313 -0.017039 -0.0146925 -0.0338828 -0.0103589 -0.00766743 0.0149013 0.00356665 -0.0398467 -0.000580199 0.0295975 0.00377731 -0.00155194 0.0182672 -0.00341521 -0.00280079 -0.0496027 -0.00450613 0.000237085 0.0519684 0.00447553 0.00598205 0.0159152 0.00011107 -0.0179111 0.00264773 0.0773801 -0.0242914 0.0036191 -0.00179349 -0.00116665 0.0217238 0.00290325 -0.00669636 -0.00943937 -0.00911861 0.0130539 -0.00191963 0.0135309 0.0118653 -0.0106115 -0.0137183 -0.0591622 -0.022204 0.00693449 0.0433744 0.00450703 -0.0835872 -0.00342852 0.00707563 -0.0862156 -0.00418363
internal_weight=0 486908 110576 23484.6 403927 82981 3072.48 79908.6 16063.1 349737 3866.45 170.211 15418.5 13533.2 1885.29 755.191 7814.24 3696.24 63845.5 308.307 345870 2891.77 63537.2 8066.14 1046.35 87090.9 82108.9 1130.1 7019.79 5185.09 752.828 54190.1 866.311 10452.9 263761 1834.69 5610.15 180.041 5718.96 49507.9 58283.9 54415.7 2138.94 46016.4 28807 15661.1 15593.6 3491.44 49788 4682.27 4434.77 3868.21 3208.81 180.712 76.3748 4627.69 247.506 659.406 67.4592 13145.9 881.64 104.337 12264.3
internal_count=2390491 1948074 442417 94015 1615922 332152 12355 319797 64315 1399088 15474 681 61739 54180 7559 3025 31287 14793 255482 1235 1383614 11622 254247 32276 4187 348402 328464 4534 28089 20748 3033 216834 3466 41866 1055150 7341 22449 721 22893 198083 233160 217681 8589 184111 115242 62656 62386 13972 199166 18751 17759 15479 12840 733 307 18515 992 2639 270 52586 3527 426 49059
shrinkage=0.0615734


Tree=5
num_leaves=64
num_cat=0
split_feature=84 56 85 115 110 38 112 112 119 49 52 43 110 88 6 45 122 34 97 41 119 101 22 41 123 41 122 41 3 100 119 22 119 6 85 110 103 110 41 15 80 110 80 67 65 110 112 41 2 114 48 49 59 119 93 65 100 80 93 22 11 11 131
split_gain=851.661 489.578 321.882 249.287 313.141 246.943 203.98 182.818 173.33 190.232 168.685 240.195 158.107 139.062 133.341 144.767 139.08 132.826 132.614 126.999 123.244 186.484 188.354 122.948 119.773 135.363 120.465 118.852 116.959 115.655 114.289 108.349 103.698 103.529 97.4926 88.9239 82.0713 78.2111 75.7073 74.503 71.6183 63.1273 60.9767 58.1662 52.7113 52.2588 48.0142 47.4835 76.758 51.4801 46.0601 46.0269 36.9515 36.0104 48.2462 35.7237 30.2244 28.4595 26.3991 25.2877 23.8238 13.8376 6.50525
threshold=-0.83912013598068225 1.084101101597289 2.9265942342162687 5.1439245725119838 7.0040328658261783 2.7928810355802836 12.898843335040567 5.3955742433707945 330.50000000000006 -1.7772381191298965 -2.3296204224048416 2.5232577083526944 -1.8458755889723086 1.4601360419264382 5.616056725827435 -2.6360702773620672 -0.20392451764433375 0.4254268147625499 9.4215159908657231 -0.084914554300799597 296.50000000000006 3.879018269040988 -0.36931420276041627 -1.3138988536076337 0.99712476886829571 -0.26226069494069432 -4.3192855659060898 -0.42726512224429564 -2.8331603397946679 1.1083240795219187 494.50000000000006 -1.7114916666310711 279.50000000000006 0.79132010217862037 2.0800838093318395 6.4367359615064244 -1.2366729731010173 -3.1227469448915373 7.7401121296828839 3.1672200518207849 1.4843781688014099 2.4800345149461194 4.0421725161501953 -1.3523712828593049 3.9805322759622817 7.0040328658261783 9.3681309242194164 0.92777278956569376 3.8694841078185251 3.6338490242567878 -3.9669085051319075 -2.2120168411487353 9.5074068549939899 84.500000000000014 -0.13998662453952129 4.1239279097720578 5.1824948531163271 -0.7561152773999148 1.0679233301608215 -5.9168675431967879 4.1445595221903728 1.5012377080126635 0.23676214743654575
decision_type=8 10 2 2 2 10 10 10 2 2 2 10 2 2 2 2 10 8 10 2 2 2 10 2 2 2 10 2 8 2 2 10 2 2 2 2 10 2 2 10 2 2 2 2 2 2 10 2 10 10 10 2 2 2 2 2 2 2 2 10 8 10 10
left_child=2 5 13 6 19 10 8 12 9 -3 11 32 18 43 16 -16 -14 39 31 27 21 22 -9 34 26 -26 -22 -5 41 -30 -10 -4 -2 -25 -8 -21 52 -20 -13 55 51 -12 -23 53 -41 46 -45 48 -19 -49 62 -38 60 54 -1 -7 -42 -52 -47 -55 -15 -54 -6
right_child=1 3 7 4 50 17 23 20 30 -11 28 38 14 36 15 -17 -18 47 37 35 24 42 -24 33 25 -27 -28 -29 29 -31 -32 -33 -34 -35 -36 -37 40 -39 -40 44 56 -43 -44 45 -46 58 -48 49 -50 -51 57 -53 61 59 -56 -57 -58 -59 -60 -61 -62 -63 -64
leaf_value=-0.019421271533847467 0.0054812463749294915 0.013434984872169126 0.037039339878202057 0.026076577457183996 0.10421450189299201 0.005316353268091936 -0.00039344823513002511 -0.06642648975721635 -0.00024528157309325788 0.0045533405791135665 -0.0049182438450618262 0.020324382491136245 -0.0076797287609800691 -0.0030966854053744051 0.10787878556896935 0.0048418540931150621 -0.020286638392849228 0.00053902141619959474 -0.077367751587567618 0.055832775326404176 0.050775347311937065 -0.009088472809025026 -0.02498057265066455 0.041274113056567772 0.00074791869565839838 0.097658960915274859 -0.030150574918800393 -0.013141914570105939 -0.0011528077403934558 0.0017556445118509947 0.021822216312213386 -0.0029151471286324214 -0.0021753858708132073 -0.018368350050305252 0.075049679689863397 -0.021121734736413735 -0.033050788955238004 0.10161670462658201 -0.040067010652486128 0.012837576813290008 -0.0054164713312960773 -0.022365171065655533 0.04964062169931667 -0.0013871438638567307 0.037083500467690204 -0.10710743808390799 0.018835157188789153 0.0070767719063535798 -0.017016011403566088 0.059230873304580905 -0.08469538092143207 -0.012078826888804316 0.017872509095300675 -0.050929720952930961 -0.00338444957400811 0.017920908600854064 0.011852387504876017 -0.033405049006840153 -0.026782945861514824 -0.0038423296597988564 0.02050816622569486 0.062914735123340296 -0.0078618231550641442
leaf_weight=1550.1089069545269 15239.162261769176 11467.030542612076 307.9120080769062 1838.9479015320539 7.1076837927103025 13998.160859107971 81.635729521512985 722.30392365157604 27596.630780085921 45109.659262105823 1843.701084882021 3544.7549401372671 7797.7401990294456 6638.5240272134542 54.847206398844719 900.23428608477116 5774.5612037330866 10523.64574919641 10.4915933907032 676.53284727036953 78.060375332832336 216.24915441870689 979.41433089971542 228.53544591367245 215.73685498535633 73.178979605436325 654.15507104992867 348.47862945497036 251935.39049677551 65263.577225193381 919.4255386441946 1566.2228524237871 11976.889497235417 213.35306623578072 317.55589404702187 62.16016036272049 413.16982087492943 78.595881596207619 80.486928775906563 5246.5052483975887 4663.127404242754 1370.8842101842165 97.131953328847885 68930.949461042881 363.50144702196121 17.135008826851845 448.03238862752914 2121.6858723461628 1037.3791050463915 74.266215100884438 101.10891824960709 9985.2206914275885 83.651608198881149 43.461811676621437 1314.2551561743021 907.77199557423592 418.75988905131817 69.008468300104141 163.81923714280128 8475.7244261801243 166.16219203174114 37.428898334503174 2.7128893435001373
leaf_count=6201 60983 45946 1233 7398 29 56018 327 2897 110413 180537 7375 14209 31244 26558 224 3604 23121 42107 42 2741 313 866 3926 917 865 293 2621 1398 1007798 261084 3686 6267 47911 856 1275 251 1654 315 322 21014 18658 5484 389 275741 1459 69 1793 8492 4151 298 419 39956 335 174 5258 3634 1676 278 657 33905 665 150 11
internal_value=0 0.00118301 -0.00456863 0.00529821 0.022435 0.000232584 0.00467881 -0.0118188 0.00438056 0.00635348 -0.000254191 0.00409501 -0.00926232 -0.00319879 -0.0114787 0.0107589 -0.0130435 0.00522143 0.00713828 0.0272831 -0.0257035 -0.0345343 -0.0425725 0.0348528 -0.00827677 0.0252943 -0.0215232 0.0198287 -0.000672822 -0.000554395 0.000466227 0.0036492 0.00211181 0.0124775 0.0596214 0.0493571 -0.00749171 0.0805382 0.0189836 0.00836031 -0.0099843 -0.0123586 0.00911451 -0.00201047 0.0144086 -0.00134274 -0.00125655 0.000540377 -0.0010362 0.0088406 -0.0564044 -0.0129121 -0.00192034 -0.00609064 -0.0120631 0.00608397 -0.00399348 -0.0638894 -0.0343891 -0.00408255 -0.00252028 0.0317961 0.0732539
internal_weight=0 474568 122876 89039.9 3106.06 385528 85933.8 19526.8 85092.7 56576.7 351255 30841.3 16490.6 103350 14527.4 955.081 13572.3 34272.9 1963.22 2926.12 3036.23 2015.1 1701.72 841.08 1021.13 288.916 732.215 2187.43 320414 317199 28516.1 1874.13 27216.1 441.889 399.192 738.693 22406 89.0875 3625.24 20515.9 15480.3 3214.59 313.381 80943.5 5610.01 69559.9 69379 13757 11561 2195.95 179.938 10398.4 6925.77 11383.6 2864.36 14905.9 5081.89 170.117 180.954 8519.19 6804.69 121.081 9.82057
internal_count=2390491 1898821 491670 356482 12525 1542339 343957 78220 340582 226483 1405166 123425 66050 413450 58193 3828 54365 137173 7857 11788 12170 8078 6823 3375 4092 1158 2934 8796 1281741 1268882 114099 7500 108894 1773 1602 2992 89652 357 14531 82125 61944 12859 1255 323798 22473 278260 277534 55048 46258 8790 737 41610 27708 45538 11459 59652 20334 697 726 34079 27223 485 40
shrinkage=0.0615734


Tree=6
num_leaves=64
num_cat=0
split_feature=91 63 110 43 80 110 119 15 91 45 6 91 13 123 45 43 123 112 43 41 51 43 122 119 119 6 119 114 43 34 119 93 41 6 44 41 119 41 43 22 40 41 91 45 119 51 110 123 43 126 74 37 89 64 131 49 15 65 43 43 54 93 54
split_gain=765.769 585.102 582.46 369.792 331.917 319.823 220.072 216.259 204.306 277.412 182.963 179.263 179.165 178.745 176.667 161.407 397.951 228.303 220.599 429.329 159.47 152.745 162.973 149.649 145.21 130.847 124.759 123.474 123.444 137.012 132.076 122.458 120.587 173.638 139.273 119.528 116.07 201.611 108.188 106.673 90.8523 90.4998 87.0247 86.7341 84.2463 83.9147 77.1626 74.0799 73.2043 69.7507 68.4578 64.8917 56.0641 52.7967 50.2366 43.2993 42.2414 34.8837 33.2332 22.5711 12.6806 17.0766 16.5523
threshold=-0.30330404664621374 0.79178470383125366 -0.29009588527010177 1.7815582956774796 0.060875327304908994 0.038642695987278951 388.50000000000006 3.1672200518207849 -4.9986839607728077 -3.8522994799395072 -0.93135000798664846 4.730754863037574 -0.81082918515855584 -2.8348967285753308 -0.60764178759097209 7.0785740966330248 -2.077135416573086 4.9622729663545764 3.4504325402820171 1.6695976604776843 -0.45873662051950576 0.25359859257589068 -0.42391672976866712 5.5000000000000009 454.50000000000006 -0.95600741573588188 3.5000000000000004 -0.42442344117015901 0.13088051163915576 8.0845699628854977 483.50000000000006 0.14917216078248194 -0.86639457734278935 -1.0335950751266128 2.1217640159284987 1.6695976604776843 43.500000000000007 1.1829617128747889 1.627500975215199 5.8272323631912384 8.7584278359447172 0.61201740663029891 4.4237170560463701 -2.5058006564872324 1.0000000180025095e-35 0.72801735213641494 -3.2368858341490987 -0.15173948902025142 10.175590875973535 3.1450358785729375 0.91968336837026043 -1.5062753972223757 -0.59896171877186744 5.7711873552127413 -1.0893994690528628 1.3815366091540797 6.2268545349744802 3.9805322759622817 4.0704251458137364 1.221753174977416 5.8423161175916727 1.6791163965668645 2.8669607910210471
decision_type=2 10 2 8 2 2 2 10 2 2 2 2 8 2 2 10 2 10 10 2 2 10 10 2 2 2 2 8 10 10 2 2 2 2 8 2 2 2 10 10 10 2 2 2 2 2 2 2 10 2 10 8 2 8 8 2 10 2 10 10 10 2 8
left_child=1 7 12 6 10 15 11 21 32 48 25 20 28 50 -11 18 41 -18 23 -20 -4 26 43 -3 38 -5 44 -28 29 30 -2 -12 33 -7 -34 -13 37 -30 -8 -38 -26 -17 47 -23 -1 -44 -31 -15 -10 -24 54 58 -53 56 -14 -52 57 -9 -6 -58 62 -62 -55
right_child=2 5 3 4 51 8 24 53 9 14 31 35 13 42 -16 16 17 -19 19 -21 -22 22 49 -25 40 -27 27 -29 36 46 -32 -33 34 -35 -36 -37 39 -39 -40 -41 -42 -43 45 -45 -46 -47 -48 -49 -50 -51 55 52 -54 60 -56 -57 59 -59 -60 -61 61 -63 -64
leaf_value=-0.0080915690851629373 -0.0036311500506211783 -0.055011709650121247 0.0063836847811544056 0.00018357101840536013 -0.025508474693902383 0.029163469929678009 -0.0039217188926023265 0.0078760576016306035 0.039578236776268705 -0.0060279057643475948 0.020273794835812764 0.014244153194410955 0.07856194687340709 -0.0012333872224366607 -0.014969271050987496 -0.035001211786597243 0.038970071783623342 -0.026128903622008533 -0.015208978091460478 0.034333030322777541 0.0019592649823740086 0.010783880728077762 -0.0080708696103680647 -0.003311852852673337 0.0031994935091285851 -0.0785333217914609 -0.0030362401979714374 0.0011698304748196026 0.0067892775933992523 0.11715839095167882 -0.018556935980024357 0.010000891508395084 -0.0066162993449429613 -0.026779802273520118 -0.048078820853217248 0.058784807856642224 0.00077541960201271026 -0.033892262237811235 -0.052447750392194376 0.098582414769957424 0.090148518692407004 -0.11363894422386475 0.0050290511017047285 -0.0013455624909280417 0.032577880927839767 -0.022968585267875197 -0.092233629859842042 0.0034435562567741987 0.1272207686616901 0.00011221543151983849 0.022775491265095933 -0.022383490216594529 0.0010457639843458192 0.010073949084330696 0.031427244181269895 -0.047627300700284245 0.021211010357291987 0.027687167248726711 -0.069935214797176432 0.06728271903048319 -0.017681638309416936 0.034455325005626071 -0.017516099035922758
leaf_weight=262.96578457951546 54483.146470442414 213.8878088593483 56666.575688377023 2109.6239817738533 243.72381177544594 290.87077480554581 20994.003425866365 5947.1403109878302 198.60718533396721 16622.024784952402 10640.118158265948 4067.791308760643 161.1242528706789 19518.486457824707 16891.642620414495 78.077012941241264 293.79726132750511 670.06663629412651 1104.9945651143789 1658.6225229501724 67885.692519932985 2497.187327966094 26385.444305717945 28018.309444069862 15958.577071815729 83.218013942241669 38885.960365980864 82815.357023596764 866.48930005729198 7.1983377188444129 2344.4067349284887 7500.6102348417044 406.55814293026924 759.81723172962666 1256.0817264765501 242.0160241574049 36869.630206167698 989.02665829658508 175.64460879564285 42.325157359242439 45.691445499658585 191.74873784184456 658.46734671294689 21295.322212964296 726.92075331509113 1057.9851543903351 91.298304632306099 37525.495616033673 44.167417362332344 4644.2307593226433 164.77997656166553 601.44781722128391 1087.1044447124004 103.18799342215061 183.20585259795189 41.451334416866302 831.30280236899853 357.21055847406387 86.490399301052094 42.370122984051704 41.469799414277077 55.953766539692879 410.02196092903614
leaf_count=1052 217956 856 226791 8453 975 1164 83997 23812 795 66548 42615 16320 647 78085 67621 313 1176 2685 4422 6636 271645 9991 105555 112098 63854 333 155557 331298 3468 29 9379 30098 1628 3048 5051 975 147515 3957 703 173 184 769 2637 85191 2908 4234 367 150128 177 18581 660 2406 4349 413 734 166 3332 1434 346 170 166 224 1641
internal_value=0 -0.00256315 0.00189607 0.00419633 0.0116314 -0.00741665 0.00319539 -0.000763751 -0.0113661 -0.0100595 0.0139956 0.00439941 -0.000899596 0.00175942 -0.0105346 -0.00294764 -0.0247888 -0.00628596 -0.00207832 0.0145243 0.00397221 -0.00120436 -0.0039064 -0.00370353 -0.000978276 -0.00280372 2.98754e-06 -0.000174092 -0.00254766 -0.00437267 -0.00424691 0.0160263 -0.0276214 -0.0112926 -0.0379402 0.0167453 0.000132184 -0.0148948 -0.00432434 0.00088757 0.00344773 -0.0908843 0.00143223 -7.24941e-05 0.0217739 -0.0122281 -0.0769308 0.00184327 0.0555228 -0.0068461 0.03668 -0.0121814 -0.00729954 0.00927835 0.0534832 0.00862493 0.010757 0.00899857 -0.0371448 0.0234453 -0.00810277 0.0122624 -0.0119687
internal_weight=0 254001 343393 188388 22352.3 68699.3 166036 185302 36469.8 33756.4 20333.6 128862 155005 59311 33513.7 32229.5 1233.69 963.864 30995.8 2763.62 124552 177513 54822.2 28232.2 37173.9 2192.84 122691 121701 95693.5 56926 56827.6 18140.7 2713.33 1050.69 1662.64 4309.81 38767.5 1855.52 21169.6 36912 16004.3 269.826 58760.4 23792.5 989.887 1716.45 98.4966 57044 242.775 31029.7 550.561 2018.77 1688.55 7788.66 344.33 206.231 7178.02 6304.35 330.214 873.673 610.634 97.4236 513.21
internal_count=2390491 1016312 1374179 754044 89575 274987 664469 741325 146032 135141 81499 515731 620135 237291 134169 128955 4943 3861 124012 11058 498436 710133 219318 112954 148738 8786 490815 486855 382844 227731 227335 72713 10891 4212 6679 17295 155113 7425 84700 147688 64038 1082 235084 95182 3960 6871 396 228213 972 124136 2207 8076 6755 31192 1381 826 28748 25246 1321 3502 2444 390 2054
shrinkage=0.0615734


Tree=7
num_leaves=64
num_cat=0
split_feature=56 3 38 85 112 56 115 110 43 34 119 110 123 119 57 93 41 112 115 41 112 123 6 6 119 12 67 88 64 126 65 43 110 22 131 77 119 60 63 119 110 93 49 123 126 91 100 119 80 126 37 65 119 41 123 119 112 119 110 119 16 97 1
split_gain=686.969 473.102 272.686 242.926 228.147 205.497 184.044 267.304 155.683 151.093 140.136 229.246 125.613 161.563 137.601 117.866 280.063 199.181 118.16 273.891 151.177 157.611 119.781 118.514 116.504 115.847 115.556 111.752 111.48 111.024 107.568 105.33 103.888 102.353 96.9437 95.2531 80.2421 79.625 67.1407 66.788 63.806 70.1714 62.3762 55.5976 80.0721 52.7125 45.8814 45.2644 38.5146 38.327 38.2659 39.2831 37.4622 36.1883 36.0395 33.6484 32.3374 31.7689 27.5806 27.2691 23.8999 15.3053 12.6556
threshold=-0.98353482020864458 1.596794360047088 2.7928810355802836 4.3061333981113608 12.898843335040567 0.70517904558465794 5.1439245725119838 7.0040328658261783 0.2166862062850598 10.491511680512565 39.500000000000007 2.1594292248800686 -1.2032307152887782 45.500000000000007 1.4155671841276425 3.9404914327091505 -0.72374033743632626 -0.026059204610592995 -5.015103818384957 -0.90776095687801794 3.2577646182644884 -1.2032307152887782 -1.3104023560005811 -1.1128860331037951 43.500000000000007 6.3425962109391696 7.5689540352318296 1.0602808687781673 -1.9743097500521576 4.3019592000749194 3.4734031422433929 3.0206170113069444 -0.29009588527010177 -4.0095577028609801 -1.0000000180025095e-35 9.0662197209805377 84.500000000000014 0.25586945741624106 -0.42249209098086665 400.50000000000006 7.0040328658261783 4.2360076174592551 2.8526816259045034 5.3087230611026275 2.7165501540398087 6.7464618105113674 2.9992924878315912 45.500000000000007 -0.7561152773999148 4.8842730502296199 0.71286193816068677 3.2890086309755149 94.500000000000014 1.8844824678049066 -4.6135457467288106 202.50000000000003 1.3808727393641445 80.500000000000014 1.8238511172763681 276.50000000000006 7.5407003343545211 3.1590956334204248 2.0130829301783248
decision_type=8 10 8 2 10 10 2 2 8 10 2 2 2 2 2 2 2 10 2 2 10 2 2 2 2 2 2 2 10 2 2 10 2 8 8 2 2 8 10 2 2 2 2 2 2 2 2 2 2 2 8 2 2 2 2 2 8 2 2 2 10 10 10
left_child=3 2 5 27 6 12 9 34 39 24 11 45 13 -2 -14 18 31 53 19 23 21 -20 -22 -5 -3 -21 30 40 -19 35 37 33 -10 -17 -8 -12 -11 -4 52 -7 43 55 -43 47 -45 -6 -32 -1 -9 -33 51 -40 57 -18 -13 -42 -52 -29 -31 -54 61 -28 -62
right_child=1 4 26 15 10 8 7 48 32 36 29 54 14 -15 -16 16 17 28 20 25 22 -23 -24 -25 -26 -27 60 38 -30 58 46 49 -34 -35 -36 -37 -38 -39 50 -41 41 42 -44 44 -46 -47 -48 -49 -50 -51 56 -53 59 -55 -56 -57 -58 -59 -60 -61 62 -63 -64
leaf_value=-0.0072406883424942642 0.0091127052615812294 0.010036895353471499 0.006030659362235841 0.10323885398299164 -0.09963646838595773 0.0016017505861978124 0.066192270399930392 -0.078007163969931709 0.0018722644374958919 0.01291405325932023 0.026436211182702826 -0.085560727361445141 -0.00096569146829616581 7.9770317173357799e-05 -0.0043258976328946286 -0.037318540396384249 -0.10461010376285952 0.068883680679058645 0.0073526556268538401 -0.02878106832528465 0.077207041748365693 -0.018404942478662516 -0.030496073988359292 -0.0034533528103803768 0.0033717409745880971 -0.077910932868811747 0.023676262586371781 0.0020409824317292034 -0.049405474101525224 0.036181620139179589 0.010482008560105791 -0.096953740872435523 0.0097276472081731531 0.027595694962524453 0.021607542713919525 0.070448062271231682 -0.037721039680402788 0.00020710322071874966 -0.014402254300077412 -0.0042916756852074958 -0.083222604541230136 -0.017977443275489911 0.088151729612867033 -0.0013243018631450018 0.057193188950267884 0.049617295823973291 0.027225164221910361 -0.0017133293473490776 -0.02013827622534865 0.021541544215361266 -0.010099730013332385 -0.002548630580036051 -0.011886807382199197 0.12738747622702862 0.087854171793865773 -0.030240573010477053 0.0018289216052598874 0.031851555354468201 -0.047526539398123797 -0.0023567853299749615 -0.1043963331694004 -0.0010662899506913726 -0.0093205821059040208
leaf_weight=6780.6207219958305 9039.6888312995434 11730.793031662703 17252.145508334041 50.981543496251106 79.390114456415176 31307.149301305413 199.86157317459583 101.04749739170074 11258.449007749557 156.47308883070946 328.08420008420944 4.9582678526639929 229166.09395734966 44278.876688748598 57871.65906406939 233.82110691070557 36.42885947227478 324.54791171848774 1504.7999167144299 319.00717158615589 39.884658664464951 2243.3833194822073 2122.1840274482965 174.84717705845833 65233.387770146132 423.56170067191124 1487.4982313811779 1555.3490852564573 33.305722028017044 20.145895719528198 3025.2066030353308 87.368665412068367 14739.124956160784 151.92379055917263 2469.7401956021786 431.81412759423256 490.93677906692028 18389.870452165604 8324.3426988273859 9503.3856714516878 84.937820434570312 95.35152243077755 26.924653977155685 230.62247091531754 144.01425153017044 10.114086896181105 780.62707069516182 32732.885351017118 76.701558113098145 11.73931612074375 2216.0106988400221 1214.6231640428305 1836.6608797609806 2.7408999502658835 54.317436903715134 97.742795884609222 1409.7217716276646 148.47172686457634 57.560703292489052 2993.9177996069193 5.9969910085201255 101.23563222587109 46.199973315000534
leaf_count=27132 36183 46978 69063 204 319 125278 824 423 45056 628 1316 20 916730 177158 231505 940 147 1305 6035 1287 160 8998 8529 703 261117 1719 5967 6223 134 81 12119 351 59043 609 9964 1741 1969 73592 33333 38021 343 382 108 923 579 41 3131 130955 310 47 8871 4861 7348 11 219 394 5645 594 232 11978 24 406 185
internal_value=0 0.000746326 -3.8056e-05 -0.00584268 0.00506336 -0.000520492 0.00470252 0.0200773 0.00260173 0.00413847 0.0344962 -0.0205709 -0.00113335 0.00161122 -0.00164317 -0.0160928 0.00510008 0.0434455 -0.0188098 -0.0387465 -0.0155432 -0.00806392 -0.0285092 0.0206327 0.00438764 -0.0568048 0.00474259 -0.00451453 0.0578744 0.0442775 0.00407661 -0.0262992 0.00632581 -0.0117524 0.0249454 0.0514461 -0.025483 0.00302593 -0.0083137 0.000229372 -0.00265251 -0.0307101 0.00539171 -0.002438 0.0211704 -0.0827706 0.0139163 -0.00266184 -0.0530358 -0.082918 -0.0108463 -0.0128929 -0.0032114 -0.0883761 0.0733484 -0.0548747 -0.00546175 0.00463869 -0.0258247 -0.00598025 0.0207527 0.0220996 -0.020244
internal_weight=0 529699 448253 67652.7 81445.3 407164 80458.9 2847.35 66808.1 77611.6 986.385 148.78 340356 53318.6 287038 7760.53 881.876 397.023 6878.65 968.398 5910.25 3748.18 2162.07 225.829 76964.2 742.569 41088.8 59892.2 357.854 837.605 39447.8 484.853 25997.6 385.745 2669.6 759.898 647.41 35642 19699.1 40810.5 40193.1 304.957 122.276 39888.1 374.637 89.5042 3805.83 39513.5 177.749 99.108 13164.7 9538.97 6534.4 39.1698 59.2757 182.681 3625.73 1703.82 77.7066 4830.58 1640.93 1588.73 52.197
internal_count=2390491 2119643 1793461 270848 326182 1628974 322213 11521 267398 310692 3969 599 1361576 213341 1148235 31179 3544 1597 27635 3913 23722 15033 8689 907 308095 3006 164487 239669 1439 3370 157905 1947 104099 1549 10788 3057 2597 142655 78853 163299 160816 1227 490 159589 1502 360 15250 158087 733 398 52710 38194 26143 158 239 737 14516 6817 313 19326 6582 6373 209
shrinkage=0.0615734


Tree=8
num_leaves=64
num_cat=0
split_feature=91 63 110 85 110 119 93 41 49 93 80 85 126 72 7 91 43 45 110 13 123 119 119 112 64 43 91 65 41 22 43 34 119 54 22 43 88 59 108 91 41 129 43 14 77 76 110 119 119 43 112 49 38 67 51 119 93 53 112 79 56 49 55
split_gain=618.068 488.11 476.063 320.739 275.85 234.813 368.968 329.501 259.948 206.529 226.363 218.875 205.738 180.379 179.934 161.94 161.407 158.848 164.829 158.096 156.7 150.617 141.901 137.343 132.513 130.367 130.041 128.247 125.841 111.702 104.967 120.656 105.031 103.839 98.2496 96.6791 91.7116 96.4392 84.9652 77.3838 81.8169 72.6283 66.665 66.3753 61.7362 60.7771 59.7495 57.636 57.4159 57.3998 100.326 59.3933 54.6263 53.5235 53.4375 48.0638 45.1286 24.7629 20.4239 18.8723 0.0284201 0.0137591 0.00325286
threshold=-0.30330404664621374 0.79178470383125366 -0.29009588527010177 2.7195176564753427 1.2348307066844635 45.500000000000007 -0.34493130944368472 0.83034800896893912 -8.6597213560887578 5.2818464539096119 0.92799039653010562 10.711824682310441 -0.74579738994914846 4.6583827962735525 0.25288964376554579 -4.9986839607728077 5.6317536218629636 -0.65498663229961585 7.0040328658261783 -0.81082918515855584 -2.8348967285753308 388.50000000000006 394.50000000000006 0.1874057492211931 -3.3734037843425928 3.7643477686274065 3.7858510271808785 0.60116565148827694 -0.90776095687801794 inf 0.13088051163915576 8.0845699628854977 43.500000000000007 1.042639453403555 -5.9168675431967879 3.4504325402820171 1.7239354627414927 1.0000000180025095e-35 1.7221085765369846 4.4237170560463701 6.7490719184583119 -0.41394185006613432 0.2166862062850598 5.2348317216240048 -0.88047272106893426 0.16571910112209573 -2.675366435455246 470.50000000000006 323.50000000000006 7.0785740966330248 3.2577646182644884 -2.1408331780129757 5.5747401403537591 4.3471982500565307 1.2628612945594107 424.50000000000006 -2.6986561572740744 -3.6727862704218732 3.109762660820361 2.9356314796431056 1.1909635343345915 -1.6197379091942612 2.1014593930776804
decision_type=2 10 2 2 2 2 2 2 2 2 2 2 2 2 10 2 10 2 2 8 2 2 2 8 8 10 2 2 2 8 10 10 2 8 10 10 2 2 10 2 2 2 10 2 2 2 2 2 2 8 10 2 10 2 2 2 2 10 10 8 10 2 2
left_child=1 14 19 13 5 6 7 -3 -8 10 12 25 -5 21 36 16 28 24 -19 29 44 23 -23 -4 -17 -11 -13 43 -6 30 31 -2 -32 -18 47 -36 37 42 56 41 -41 -22 -1 52 58 -12 -39 -7 -45 51 -51 -38 -16 57 -46 -40 -29 -15 -21 -55 62 -62 -31
right_child=2 4 3 9 15 34 8 -9 -10 11 45 26 -14 53 27 17 33 18 -20 20 39 22 -24 -25 -26 -27 -28 38 -30 60 32 -33 -34 -35 35 -37 49 46 55 40 -42 -43 -44 48 54 -47 -48 -49 -50 50 -52 -53 -54 59 -56 -57 -58 -59 -60 -61 61 -63 -64
leaf_value=-0.0010398012591882107 -0.0039021974961471455 -0.049189496174750415 0.0013840939767735322 -0.00082082937565663018 -0.01281974184825033 -0.055979733520339699 0.11215382356185971 -0.012115477183283057 0.0088188404613298334 -0.011903608467911208 -0.041030380958127617 -0.12103800158511674 0.015515412528866341 -0.0098973156271029844 -0.00075250029344341705 0.031381152867927677 -0.028072258335405772 -0.014202783299560033 -0.056587999475789089 -0.10398590307945688 -0.0013215538453077407 -0.018385539459639319 -0.00060750437545747753 0.0057089691562540769 -0.0066148592981600677 0.096929103583482709 0.077531303555460521 -0.011724365164637013 -0.048009498700078305 -0.12429207067458178 -0.014160693305925785 -0.072290417330605122 0.00085311677543549404 0.10684845543623865 -0.0028895610640415109 0.00706506873441914 -0.015575547301446708 0.0070759553868046674 0.0075445045761898706 -0.014376995353664181 0.051618032807112628 0.0033243562904171002 -0.005425052003722528 -0.051523283942071452 0.050268055794976549 -0.0056181792849348084 5.177247019277466e-05 0.11608765891758194 0.012380189034524614 0.11779342089638734 -0.037577339074366035 -0.0046469391279767829 0.013217840151244126 0.0079998297033879989 0.0021221604918994674 0.018423303295153903 0.0031146794838828326 0.0073478818349759787 -0.0075199734149854333 0.017308301620088277 -0.13013441960814576 -0.12597955753296361 -0.1264601530169395
leaf_weight=29403.602409020066 56801.093003928661 1282.8669087737799 67871.740114316344 3448.8806898593903 627.02505971491337 165.23364101350307 106.70200397074223 3117.6209939271212 683.5557856708765 871.32548835873604 207.93501161038876 101.46079379320145 19160.734802424908 325.12271523475647 30786.347975507379 358.51425205171108 37.037066757678986 11688.585165798664 358.51996047794819 13.485534042119978 19260.402720615268 1802.7206062674522 30518.744661971927 47197.153361320496 11857.473735377192 43.827610835433006 14.261411011219023 817.9576073884964 999.30858673155308 8.7488724887371081 1855.3258428424597 97.976029545068741 36910.069905385375 51.976711362600327 33163.178019687533 4163.2193597406149 2067.9647170305252 5128.7406544983387 9380.4421039521694 1641.8043410480022 74.450503349304199 37781.685691460967 23766.245568007231 174.7512191683054 402.42193078994751 1579.6158919036388 43808.18240198493 7.725531890988349 76.702148526906967 37.482051312923431 27.184342250227928 21351.645797207952 1099.025306135416 1111.7236968278885 111.64939802885056 1842.0903033018112 15521.17777608335 10873.058233469725 21.727786689996719 3210.2695609033108 10.469390302896498 4.2478474378585807 3.7473842054605475
leaf_count=117622 227226 5144 271611 13829 2519 664 435 12488 2737 3504 832 408 76899 1302 123166 1443 150 46821 1445 54 77052 7212 122103 188945 47490 176 58 3272 4045 35 7425 396 147688 209 132694 16672 8277 20518 37557 6573 298 151161 95079 700 1618 6320 175256 31 307 150 109 85433 4408 4451 448 7376 62095 43533 87 12861 42 17 15
internal_value=0 -0.00230293 0.00170357 0.00378355 -0.00673715 -0.00369281 -0.0159668 -0.0229236 0.0227713 0.0102151 0.0113558 -0.0167805 0.0130235 0.00277967 -0.000659598 -0.0117399 -0.0300235 -0.0104473 -0.0154642 -0.000823808 0.00167407 0.00211482 -0.00159907 0.003158 -0.00549975 -0.0066915 -0.0965667 0.00212346 -0.0344423 -0.00237194 -0.00233646 -0.00401996 0.00013455 0.0507103 -0.00199381 -0.00177927 -0.0019825 -0.00118453 0.00520511 0.00136806 -0.0115142 0.00175565 -0.00299995 -0.000519471 0.0344088 -0.00973747 0.000787929 -0.048294 -0.0320305 -0.00545198 0.0524789 -0.00561194 -0.00027097 0.00909358 0.0398114 0.00933017 0.00237182 0.00684719 -0.0444632 0.0149139 -0.127102 -0.128935 -0.124942
internal_weight=0 253958 343338 188339 68668.5 42690.1 5190.75 4400.49 790.258 25428 24397.2 1030.88 22609.6 162911 185290 25978.4 1715.35 24263.1 12047.1 154999 59307.6 147390 32321.5 115069 12216 915.153 115.722 59698.5 1626.33 95691.7 95664.5 56899.1 38765.4 89.0138 37499.4 37326.4 125591 102107 27561.7 58758.3 1716.25 57042.1 53169.8 32136.8 549.285 1787.55 48936.9 172.959 251.453 23484.3 64.6664 23419.6 31885.4 15520.2 514.071 11222.5 16339.1 11198.2 35.2133 4321.99 27.2135 14.7172 12.4963
internal_count=2390491 1016312 1374179 754044 274987 170865 20804 17632 3172 102026 97880 4146 90728 652018 741325 104122 6923 97199 48266 620135 237291 589871 129315 460556 48933 3680 466 238881 6564 382844 382735 227622 155113 359 150061 149366 502444 408475 110300 235084 6871 228213 212701 128581 2207 7152 195774 695 1007 93969 259 93710 127574 62147 2066 44933 65367 44835 141 17312 109 59 50
shrinkage=0.0615734


Tree=9
num_leaves=64
num_cat=0
split_feature=91 63 110 43 80 110 43 115 119 115 7 6 45 49 73 119 13 123 119 119 112 41 41 115 80 41 41 43 22 119 119 119 119 65 110 29 119 125 49 54 43 74 37 126 85 51 22 122 119 67 131 29 67 49 67 18 43 1 73 131 56 49 55
split_gain=544.371 430.405 419.321 286.778 266.425 243.711 274.027 175.182 162.787 162.545 158.828 150.008 144.947 255.843 140.055 139.545 139.232 138.441 131.438 300.253 213.522 128.268 167.777 124.979 119.961 117.196 114.087 111.673 98.3696 96.9698 156.706 138.233 93.8508 91.6655 87.5572 74.9874 71.639 70.5002 76.9144 69.0262 63.8055 59.4481 56.0179 54.7377 51.2537 49.3853 48.1187 48.0496 45.8394 46.6901 44.3192 38.5008 36.828 36.2284 34.1021 30.5693 29.2412 19.7399 16.7064 1.00023 0.0192489 0.0092842 0.00221473
threshold=-0.30330404664621374 0.40067980034308809 -0.29009588527010177 1.7815582956774796 0.060875327304908994 3.6495540953327033 7.0785740966330248 5.1439245725119838 388.50000000000006 -5.015103818384957 0.40589458947457996 -0.93135000798664846 -2.3906050340016525 3.7698562808855614 1.1411963321119345 3.5000000000000004 -0.81082918515855584 -2.8348967285753308 70.500000000000014 18.500000000000004 12.898843335040567 -0.064864225697060948 0.33080732103740823 3.7832722346473688 2.1947953232423658 -1.3138988536076337 -1.0918762412136849 1.221753174977416 inf 292.50000000000006 296.50000000000006 279.50000000000006 180.50000000000003 0.45440708048230222 -2.675366435455246 2.2689506352075184 3.5000000000000004 -1.6634887877046312 1.5994318525658175 3.0733312792480478 0.272874215047821 0.91968336837026043 -1.5062753972223757 1.8235160839354227 2.2201885854790242 3.2184888984147659 1.1372872228741411 3.0645398465730893 490.50000000000006 -0.77317053911363931 -1.0893994690528628 0.19255903717505973 7.5689540352318296 1.7435665489601238 1.5072153975883094 1.2126517736604521 4.0704251458137364 1.7874256627379077 -0.38455890185986252 1.626738150118473 1.1909635343345915 -1.6197379091942612 2.1014593930776804
decision_type=2 10 2 8 2 2 8 2 2 2 10 2 2 2 8 2 8 2 2 2 8 2 2 2 2 2 2 10 8 2 2 2 2 2 2 10 2 2 2 10 10 10 8 2 2 2 10 10 2 2 8 10 2 2 2 10 10 10 8 10 10 2 2
left_child=1 10 16 7 11 9 12 8 15 14 34 23 32 -14 51 -4 28 41 19 -11 -20 27 -23 -5 -10 -13 -16 -9 29 31 -31 -2 -7 44 48 54 46 47 -39 -37 -38 50 56 -44 52 58 -36 -19 49 -1 -18 -3 -12 -43 -35 -46 -6 -50 -8 -47 62 -62 -30
right_child=2 5 3 4 42 6 45 21 24 18 33 25 13 -15 26 -17 17 37 20 -21 -22 22 -24 -25 -26 -27 -28 -29 60 30 -32 -33 -34 35 36 39 40 38 -40 -41 -42 53 43 -45 55 59 -48 -49 57 -51 -52 -53 -54 -55 -56 -57 -58 -59 -60 -61 61 -63 -64
leaf_value=-0.0068827289924555807 -0.0010926916294243356 -0.03972839758578494 -0.01069670505503314 0.0017484170233666907 -0.023521113104505883 -0.021203102335365188 -0.035354655359248831 0.016440571287395907 -0.0022162113416916412 0.003833139088383015 0.00033553787448860887 0.031534982819556003 -0.016974863027667056 0.012377726955170322 -0.0040656057560994668 0.003755632725781831 0.071825562922932074 0.0056531356067513272 -0.0022364019073499663 -0.013919319836188594 -0.036301753226427709 0.071431338047318174 0.0043951012041122802 -0.048620579163698316 0.011006473120296442 0.012661634475656151 -0.052654335828607471 -0.02778088278102912 -0.11696224890342818 -0.036837513061713206 -0.0039077197110634647 0.01399965490428068 -0.066045750529635031 0.0015907951174289013 0.008286999842376257 0.0087857652761934909 -0.0012830772224597113 0.0012201594071561967 -0.0056631914310401026 0.028219793955119254 -0.0047239354523872772 0.017618264446770598 -0.013975500092269616 0.010188455584568048 -0.0062963783041195664 -0.064676968919905681 0.044340617866374658 -0.016962266603192472 -0.036017026103172589 0.006708558910620022 0.02739586207178319 0.013324696507027287 0.021083266812498828 -0.052384579315842963 0.007930975695898141 -0.031580444825239917 -0.065218486259811054 0.073934491495306412 0.11312241953868477 -0.11989554244630136 -0.12176899316845693 -0.11835599062687911 -0.11875237932148289
leaf_weight=1098.4463286548853 49425.835575610399 61.605384305119514 2585.70090970397 1985.6135522574186 243.67228981852531 381.90316797792912 2.9844266474246979 1815.766186773777 33822.144855976105 5101.3496990501881 23639.307558566332 1347.6784661114216 8823.997289404273 1290.4609985202551 253.61569562554359 124118.90637165308 159.49737179279327 13793.396325826645 57612.295641094446 12372.874190926552 706.14446379244328 343.98144543170929 240.52022205293179 206.15664459764957 2818.0293679684401 16763.02715292573 659.96674767136574 245.81622126698494 8.7251018881797808 554.91784518957138 43270.566964685917 2413.1727219223976 329.71118925511837 11816.730737298727 881.47817528247833 5562.4830126464367 81519.072178974748 37224.551575392485 7373.6550014019012 791.50371032953262 27265.999346643686 172.29492321610451 1179.7826052755117 508.64946047961712 507.90024474263191 2.4811071902513495 166.92407329380512 365.61995568871498 131.23646095395088 7509.5463070124388 182.53446868062019 327.84398859739304 328.86968041956425 33.47436511516571 4419.2201685607433 281.92236687242985 86.360662847757339 6.4970277994871131 77.024213641881943 2.4937493056058884 10.498270079493521 4.2430321723222724 3.7448176741600028
leaf_count=4394 197753 248 10351 7949 975 1539 12 7327 135318 20440 94579 5437 35386 5185 1018 496815 647 55182 230560 49560 2837 1402 984 837 11278 67276 2677 994 35 2221 173107 9654 1330 47275 3527 22273 326121 148938 29501 3172 109086 692 4720 2035 2032 10 668 1463 525 30043 734 1320 1322 134 17698 1129 346 26 310 10 42 17 15
internal_value=0 -0.00216138 0.00159884 0.00355115 0.0101037 -0.00564213 -0.0142551 0.00267001 0.00241542 -0.00442316 -0.000315213 0.0122248 -0.0151197 -0.0132299 -0.0259858 0.0034607 -0.000773088 0.0015711 -0.00405245 -0.00873674 -0.00264888 0.0183862 0.0438462 -0.00298926 -0.00119924 0.0140661 -0.0391658 0.0111678 -0.0022259 -0.00219261 -0.00432468 -0.000390123 -0.04198 0.00269954 -0.00151899 0.0055358 -0.00199112 0.00128385 8.2099e-05 0.0112066 -0.0021455 0.0323816 -0.011231 -0.00669598 0.000111655 0.0958797 0.0140274 0.00506915 0.00441033 0.00497421 0.0481145 0.00493245 0.000620219 0.00623026 0.00331651 -0.0153214 -0.0344322 -0.0308305 0.107584 -0.0923564 -0.11928 -0.120787 -0.1175
internal_weight=0 253934 343309 188312 22320.9 88006.8 10911.1 165991 163345 77095.7 165927 20302.5 10826.1 10114.5 1303.03 126705 154997 59305 75792.7 17474.2 58318.4 2646.08 584.502 2191.77 36640.2 18110.7 913.582 2061.58 95691.7 95664.5 43825.5 51839 711.614 47347.9 118579 22589.9 109833 58757.2 44598.2 6353.99 108785 547.801 2018.47 1688.43 24758 84.9835 1048.4 14159 8745.73 8607.99 342.032 389.449 23968.2 205.769 16236 789.823 330.033 137.733 80.0086 4.97486 27.2112 14.7413 12.4699
internal_count=2390491 1016312 1374179 754044 89575 352442 43782 664469 653762 308660 663870 81499 43440 40571 5263 507166 620135 237291 303397 70000 233397 10707 2386 8786 146596 72713 3695 8321 382844 382735 175328 207407 2869 189480 474390 90418 439402 235084 178439 25445 435207 2207 8076 6755 99062 342 4195 56645 34988 34437 1381 1568 95901 826 64973 3161 1321 551 322 20 109 59 50
shrinkage=0.0615734


Tree=10
num_leaves=64
num_cat=0
split_feature=56 56 38 43 93 34 85 115 110 54 14 119 119 119 57 112 119 123 49 93 45 93 123 112 89 123 49 57 40 5 43 6 43 67 65 112 59 89 65 2 57 115 85 45 110 114 77 77 131 119 52 6 18 73 23 97 65 8 126 80 16 60 73
split_gain=494.702 341.682 250.7 195.112 253.659 216.83 175.54 157.975 246.824 145.254 170.966 138.052 167.804 154.624 135.088 124.679 124.002 213.027 118.226 117.912 114.095 113.828 144.541 112.568 111.268 105.959 310.202 122.854 104.965 102.118 99.8388 98.7795 105.19 98.7112 95.8407 93.4049 93.0343 87.6824 85.639 85.0558 82.7056 71.6883 68.7465 64.8821 64.3295 64.2937 61.833 92.6084 60.7832 55.7175 44.1472 49.0144 42.1866 38.5145 32.4476 32.3302 28.0055 22.7324 19.9585 17.9459 16.9399 15.8054 14.3482
threshold=0.82343962208903421 -1.5534285614580834 3.1076807306576621 0.14671016165598558 -1.5241132433949838 5.9193775818203402 3.4246954709770234 5.1439245725119838 7.0040328658261783 -1.0000000180025095e-35 1.1540497978046249 3.5000000000000004 5.5000000000000009 1.0000000180025095e-35 0.58255181550467905 12.898843335040567 45.500000000000007 -5.3863621290347288 1.5529264471396154 5.5861116811377221 -2.3906050340016525 -1.489894956999706 0.9677539028532095 0.37789067491949485 0.91602724434264771 -1.6378886304651246 -8.6597213560887578 12.427803006062675 11.051894970216475 4.4563728481667306 -0.10677803037069668 -1.4048192285517718 7.0785740966330248 7.5689540352318296 -1.4035447943458232 -0.15521823119778008 -1.1804936414914711 -1.0604150080273711 3.4734031422433929 3.6674503297271337 3.2500088587974409 0.021858432862159407 0.1700112049384763 5.1390176716283342 -0.66350641310462299 0.20044409385645914 -0.42063627073026977 1.9949884777182592 0.95077293790116724 491.50000000000006 -1.7189230969041758 -0.65591301470035057 8.0157901701294243 0.91457690537072034 -0.35626437094040175 2.7771995027173051 4.4321982792891843 2.8525962108975658 -2.0311276897697446 -3.9789628087294919 7.5407003343545211 1.9157463776570978 1.0699842241745914
decision_type=10 8 8 10 2 10 2 2 2 8 2 2 2 2 2 10 2 2 2 2 2 2 2 10 2 2 2 2 10 2 10 2 10 2 2 10 2 2 2 10 2 2 2 2 2 8 2 2 10 2 2 2 10 10 10 10 2 2 2 2 10 10 10
left_child=1 6 14 4 5 46 21 15 9 10 -9 13 44 42 36 16 17 -5 -18 34 29 22 30 -11 -22 26 -16 -27 -14 -21 -1 58 -33 38 48 56 41 -36 49 -24 43 -3 -6 -23 -13 -38 55 -48 -8 -4 59 -52 -40 -15 -42 -2 -7 -37 -17 -10 62 -62 -35
right_child=3 2 33 7 11 35 19 8 50 23 -12 12 28 53 25 31 18 -19 -20 20 24 40 39 -25 -26 27 -28 -29 -30 -31 -32 32 -34 60 37 57 45 -39 52 -41 54 -43 -44 -45 -46 -47 47 -49 -50 -51 51 -53 -54 -55 -56 -57 -58 -59 -60 -61 61 -63 -64
leaf_value=0.050602518477158791 -0.0011965132327170589 -0.0032393989212624501 0.0031971831100047598 -0.046529501126613422 0.0014449647796364695 -0.10739739259001008 -0.067302285056673294 -0.12450714480230075 0.070140877464235613 0.0702352392338466 0.081695719149430468 -0.077624119826721322 0.0021183025970183426 -0.048495178690138516 0.057371449723988319 0.033606380610152038 0.0059852020701007952 0.012464772098210553 -0.0018884031555841385 -0.083257722065260775 -0.024876804960008183 -0.0051656489302563295 0.019428946325135209 0.016688355873609492 0.060743220307441323 -0.002704532456343816 0.0010700412460661604 -0.017223339402577264 -0.092775912701337407 0.12153092810431713 -0.0033205284722229913 0.04459658678844948 -0.0013471341305371465 0.016886350524406346 -0.052104068667515935 0.092907437921295785 -0.00038189537478129149 -0.014322854091069431 0.01419885670127459 0.076572210617536107 -0.017622794655917675 0.0003294554280652641 0.082017231519763589 0.02269343789624928 0.040826610856009138 0.0019400144912975117 -0.039875324573136098 0.015093607624841892 -0.0059788150036190497 -0.016057216862389093 -0.09682791472979535 0.029886254984293266 -0.062791905554813607 -0.013904039235655644 -0.058152131183707136 0.11501008334091886 0.08271702791247848 -0.072772305376327645 -0.11195826017687363 -0.083238636458413437 -0.04438947613302003 0.018199683965111377 0.030368525296233791
leaf_weight=142.1853893995285 489.90003605186939 48780.988524526358 30115.844559788704 237.29199412465096 149.38366417586803 154.28266710042953 228.53502349555492 16.163859575986862 2.9865253865718833 165.9584413766861 267.95007613301277 17.992717176675797 66011.265314310789 437.12931130826473 380.55358135700226 4.246777385473254 23711.888217240572 10527.212893351912 10401.978483125567 59.205919444561005 80.40128655731678 26261.846217796206 251.92989115417004 1443.4570065885782 202.42071594297886 123231.02498827875 14803.08206641674 2249.9365183264017 44.222593724727631 10.936952412128447 1541.4832206368446 655.54025118052959 265.434142395854 1290.8169876635075 242.79062859714031 12.234925150871279 90748.4455191046 5710.0434796661139 3100.0196846574545 162.42540587484837 1399.4025851786137 37932.827017515898 54.904197454452515 320.8123314678669 512.86443388462067 90106.217912510037 522.58853815495968 149.42377623915672 83.731626003980637 580.78351010382175 16.663662552833557 37.88683408498764 27.219558000564575 169.29722902178764 79.125599265098572 9.2481715977191907 2.9946668446063986 4.2236008793115607 22.445519164204597 91.49193263053894 30.47190634906292 30.715234607458115 389.59770226478577
leaf_count=570 1960 195177 120575 953 598 624 922 67 12 682 1120 72 264273 1750 1536 17 94996 42227 41662 241 324 105143 1008 5852 816 493031 59259 9008 178 44 6168 2656 1073 5189 978 49 363060 23031 12439 650 5612 151785 220 1286 2054 360506 2091 598 338 2325 69 153 109 678 318 37 12 17 90 392 122 123 1566
internal_value=0 -0.00087288 -0.000400252 0.00359776 0.00149602 -0.0249819 -0.00657618 0.00661599 0.0233705 0.0293753 0.0699644 0.00202438 0.00233187 -0.0232309 -0.000832206 0.00586921 0.0054025 0.0111643 0.00358439 -0.0156572 0.018969 -0.00458346 0.0092508 0.02221 0.036403 -0.00237701 0.00248115 -0.00296486 0.00205477 -0.0513263 0.00123326 0.0279708 0.0313551 0.00455787 -0.017608 -0.0891727 -2.00806e-05 -0.0158638 0.00382179 0.0418288 -0.00561779 -0.00167821 0.0230995 -0.00482943 0.0368119 0.000774937 -0.0154595 -0.0276528 -0.0508589 0.00283289 -0.0529253 -0.00882141 0.0135287 -0.0388383 -0.0197918 0.000956552 -0.103777 0.0503906 -0.0887987 -0.0783902 0.0188534 -0.0129704 0.0200121
internal_weight=0 480576 443799 116611 68742 1344.9 36777.3 47868.6 2042.56 1893.53 284.114 67397.1 66586.3 810.714 408233 45826 44878.4 10764.5 34113.9 6618.07 352.965 30159.2 2098.02 1609.42 282.822 140665 15183.6 125481 66055.5 70.1429 1683.67 947.667 920.974 35565.5 6265.1 173.736 267568 5952.83 33823.9 414.355 28061.2 86713.8 204.288 26582.7 530.857 180855 1171.16 672.012 312.267 30696.6 149.029 54.5505 3127.24 606.427 1478.53 499.148 157.277 16.4585 26.6923 94.4785 1741.6 61.1871 1680.41
internal_count=2390491 1923259 1775810 467232 275211 5388 147449 192021 8347 7721 1187 269823 266577 3246 1633362 183674 179838 43180 136658 26694 1425 120755 8396 6534 1140 562834 60795 502039 264451 285 6738 3836 3729 142448 25269 702 1070528 24009 135448 1658 112359 346962 818 106429 2126 723566 4686 2689 1260 122900 626 222 12548 2428 5930 1997 636 66 107 404 7000 245 6755
shrinkage=0.0615734


Tree=11
num_leaves=64
num_cat=0
split_feature=3 56 38 85 115 110 112 45 110 119 119 110 119 34 43 30 43 110 126 110 119 109 119 63 56 65 7 93 41 43 85 110 93 6 30 110 131 41 110 14 49 122 112 121 119 119 43 41 2 118 127 62 45 91 5 49 51 117 40 45 41 51 7
split_gain=445.079 310.91 221.11 174.561 164.843 223.434 140.003 131.342 145.131 131.213 312.233 391.189 192.321 181.697 126.587 126.246 124.013 154.205 138.573 126.524 122.958 114.407 109.536 109.075 106.678 100.954 97.7477 96.5451 254.384 168.099 122.126 115.193 196.485 98.6055 91.8967 89.7335 79.2765 123.293 69.4302 66.2838 65.462 60.3114 58.9157 58.7009 58.4217 72.4038 56.4158 51.4683 101.502 48.4184 46.8546 38.0937 37.1115 69.9423 43.2448 27.3371 24.8874 24.23 23.8739 23.4244 13.975 10.1115 0.0431895
threshold=1.2606097080995717 -0.98353482020864458 2.6116917303042904 4.3061333981113608 5.1439245725119838 7.0040328658261783 12.898843335040567 -4.4417450020888305 -3.5657758764619492 84.500000000000014 85.500000000000014 2.0410788797060673 3.5000000000000004 10.491511680512565 2.1502144524088167 0.96669711330373109 10.175590875973535 1.8238511172763681 4.3019592000749194 0.36055880149289127 12.500000000000002 -1.7651506164887703 1.0000000180025095e-35 2.4347999946774785 0.52302292760695634 3.7864763549594662 0.49719259817826267 4.58390812104156 -0.50069925650552449 0.77255843604062846 10.711824682310441 6.0115612940274508 1.5263427111883645 -1.0859017733195975 0.93163111231724505 0.66857899215133887 0.076597596804194465 0.89504681910117212 4.5523937288437004 1.1540497978046249 -1.6197379091942612 -5.1781021216132617 -3.2227189656677688 1.1665595137682303 94.500000000000014 84.500000000000014 -1.5416361795142992 2.003958925303722 3.8694841078185251 9.1544911853128514 3.2667198552094114 1.7030606697902817 2.25623465374531 5.1292387305138156 3.9543520652119581 3.5670225743595698 4.6886777398841533 -0.74779321395465492 2.8655811262593835 1.3137858523563943 -1.6760093996720835 3.3832371746870935 3.1671770466118336
decision_type=10 8 8 2 2 2 10 2 2 2 2 2 2 10 10 2 10 2 2 2 2 10 2 10 10 2 10 2 2 10 2 2 2 2 2 2 10 2 2 2 2 10 10 2 2 2 8 2 10 10 2 2 2 2 2 2 2 8 8 2 2 2 8
left_child=1 3 7 34 6 23 9 8 14 12 11 -11 22 -12 -3 24 18 35 19 -8 -14 -10 -2 46 -9 -17 47 31 30 -30 -29 33 -33 -5 38 -18 39 -38 49 -25 -40 -19 56 -44 45 -36 60 48 -4 -1 -46 -48 54 61 59 -56 -28 -49 -20 -7 -6 -54 -55
right_child=4 2 26 27 5 52 16 15 21 10 13 -13 20 -15 -16 25 17 41 58 -21 -22 -23 -24 36 -26 -27 42 28 29 -31 -32 32 -34 -35 44 -37 37 -39 40 -41 -42 -43 43 -45 50 -47 51 57 -50 -51 -52 -53 53 62 55 -57 -58 -59 -60 -61 -62 -63 -64
leaf_value=-0.00096141356960305216 0.017658804946591545 0.024521010719770919 0.0014215730539821763 0.01259508668534351 0.028735459941237499 -0.026645344393880412 0.0032291456899605996 -0.00071690949375319854 0.037963139477246013 0.0067452312892283782 0.0023206480950434811 -0.072355120441466039 0.019050390750929343 -0.033055337454323208 -0.08898701936979074 -0.0038571826906753106 0.022861683216076963 -0.1338909665188501 0.00085522115605046734 0.058570663476386148 0.0061881436344548898 0.0085352874069260232 -0.025166851523168186 -0.096942516096700682 0.0024025575607089667 0.0016404321761322633 0.025471492722196714 -0.03387758044501589 -0.068121338220160921 0.082055326853050434 0.072548114250673951 0.00049746657635757138 -0.065803730587022324 -0.015108237980747816 -0.0034856145291801105 -0.12133782724456561 0.030954493022769487 -0.072317816555469233 -0.020811214974198397 0.074846182541207187 -0.0044594461809392295 0.064446321527916961 0.0038763525929218943 0.010651671357679212 -0.00687436755574947 0.026557056850727224 0.026902651592631128 0.059173482663245035 -0.018144953891396521 -0.01952129553983618 -0.014873386363186176 0.0047767318867910479 -0.009269918669058597 -0.09763370006573896 -0.042881395699647405 0.066885750825185747 -0.11253745457042245 0.01238337569518248 -0.058924392943333716 -0.096489371126767171 -0.10065258234315537 0.10026641899007309 -0.10673402368288507
leaf_weight=38269.981851011515 287.75201220810413 59.712110444903374 22616.262262284756 531.16552178561687 3.7089217603206661 23.051777809858322 216.60877393186092 233702.11987167597 614.53791408240795 466.13969248533249 76754.422283992171 482.2831187993288 3221.4694579988718 554.42695698142052 99.020974069833755 69941.853872463107 22.448323220014572 6.4572578370571128 45.042673423886299 565.57632166147232 22487.631489694118 2707.8245755732059 1062.5238920301199 8.8830501735210401 50552.930219337344 15463.54378682375 686.37183015048504 335.12588661909103 32.917691111564636 199.64099429547787 46.558629065752029 284.10595011711121 419.9563651829958 5872.4875098913908 3774.0222572386265 60.336669996380806 1250.0858224332333 45.421203836798668 1325.9294563829899 205.74696059525013 3094.5069078952074 58.231915146112442 14053.830055385828 7401.314059138298 8365.0468318015337 330.79628820717335 413.2742945253849 43.7224141061306 1051.9085108488798 540.42665456235409 4155.4541594088078 1030.9202831834555 3.9364318698644665 11.342018783092497 25.591515824198723 12.957052826881407 4.9899756610393515 1040.7249418795109 57.868683844804764 86.591268226504326 21.573499023914337 16.965767800807953 2.39465208351612
leaf_count=153159 1153 239 90515 2139 15 98 871 934958 2476 1869 307279 1932 12916 2227 397 279826 90 26 182 2305 90127 10847 4257 36 202373 61873 2752 1354 135 810 188 1150 1705 23697 15122 242 5086 185 5320 874 12404 237 56296 29685 33503 1325 1676 175 4211 2168 16648 4179 16 49 105 53 20 4165 234 371 87 69 10
internal_value=0 -0.000796543 -0.000172912 -0.00467281 0.00354732 0.0174006 0.00313537 -0.00067375 0.0112305 0.00291416 0.00163616 -0.0334781 0.0066102 0.00206695 -0.0462876 -0.000785852 0.0256976 -0.0265786 0.0344079 0.0432451 0.00779984 0.0139786 -0.0160404 0.0214548 -0.000162132 -0.00286178 0.00381188 -0.0133855 0.0100346 0.0607985 -0.0208956 -0.0154095 -0.0390496 -0.0128103 -0.00354879 -0.0822361 0.033076 0.0273337 -0.00205263 0.0677362 -0.00936423 0.0446483 0.0067837 0.00621361 -0.00743925 -0.00106456 0.00951206 0.00115296 0.000551958 -0.00121986 -0.00952918 0.0111083 -0.0486706 0.00870849 -0.0620826 -0.00598616 0.0244754 0.0142698 -0.0327598 -0.0818051 -0.0816714 0.0796379 -0.0992201
internal_weight=0 487619 420041 67578.1 109512 3162.44 106349 373142 3481.1 105317 78257.3 948.423 27059.4 77308.8 158.733 369660 1032.57 147.474 885.096 782.185 25709.1 3322.36 1350.28 2979.61 284255 85405.4 46899.1 7721.96 614.243 232.559 381.685 7107.72 704.062 6403.65 59856.2 82.785 1510.14 1295.51 43230.8 214.63 4420.44 64.6892 22146.5 21455.1 16625.3 4104.82 1469.48 24752.6 23668.2 38810.4 12520.5 1444.19 182.83 34.6389 148.192 38.5486 691.362 1084.45 102.911 109.643 25.2824 20.9022 13.7367
internal_count=2390491 1951635 1680808 270827 438856 12909 425947 1492989 13959 421760 313307 3801 108453 309506 636 1479030 4187 595 3592 3176 103043 13323 5410 12138 1137331 341699 187819 31178 2487 945 1542 28691 2855 25836 239649 332 6181 5271 173051 910 17724 263 88753 85981 66598 16447 5957 99066 94726 155327 50151 5855 771 144 627 158 2772 4340 416 469 102 85 59
shrinkage=0.0615734


Tree=12
num_leaves=64
num_cat=0
split_feature=115 63 110 63 110 91 119 93 41 49 45 43 123 43 112 45 119 89 112 15 119 119 123 13 119 119 119 43 34 65 114 85 119 93 119 6 43 49 34 119 22 110 45 12 111 123 122 125 11 6 51 91 61 119 123 64 11 41 65 29 27 54 45
split_gain=400.929 380.332 349.144 265.246 212.439 208.677 195.413 318.932 297.331 225.577 178.338 174.593 372.25 258.499 231.574 209.316 169.688 152.181 147.634 146.934 140.306 138.072 129.075 127.034 112.17 195.092 132.617 111.652 133.837 110.695 134.276 99.8931 105.663 93.0409 92.6158 92.2317 87.3607 252.395 148.736 79.1093 77.3052 77.9467 76.5726 99.0731 74.9588 74.144 74.0396 72.4562 69.2752 65.1553 64.4269 59.2648 56.1797 53.3062 37.8582 35.1174 35.7581 29.6981 21.4396 22.3851 15.8262 14.9502 9.41234
threshold=-0.147546267747941 0.79178470383125366 0.15547743252957141 2.1454221829597073 1.2348307066844635 4.730754863037574 45.500000000000007 -0.34493130944368472 0.83034800896893912 -6.8818747819522574 3.7585136305563878 10.175590875973535 -4.6135457467288106 5.6317536218629636 5.3955742433707945 -2.5058006564872324 388.50000000000006 0.95648637504295808 12.898843335040567 3.1672200518207849 375.50000000000006 454.50000000000006 3.9803604317412469 -0.81082918515855584 3.5000000000000004 5.5000000000000009 1.0000000180025095e-35 0.13088051163915576 8.0845699628854977 1.4798368198662322 1.1261032811448402 1.8864246463981487 3.5000000000000004 2.2867121437485092 490.50000000000006 -1.0859017733195975 3.4504325402820171 7.1837014500450058 8.0845699628854977 394.50000000000006 5.8272323631912384 -3.5657758764619492 -4.4417450020888305 5.6301941760619991 0.027909566258445838 1.7042899595997825 5.2405571357089142 -1.7497012524921871 2.3289644794322331 0.5494138126727458 1.5574237148915038 5.7307383071719391 6.8769637983003369 424.50000000000006 5.3087230611026275 5.7711873552127413 10.929993864190395 4.5089806247681574 0.26483109512600961 2.3412020912844302 0.063881935328717748 -0.74324933160242812 2.9100562895049946
decision_type=2 10 2 10 2 2 2 2 2 2 2 10 2 8 10 2 2 2 10 10 2 2 2 8 2 2 2 10 10 2 10 2 2 2 2 2 10 2 10 2 10 2 2 2 2 2 10 2 8 2 2 2 10 2 2 8 10 2 2 8 10 8 2
left_child=1 19 23 16 6 10 7 8 -3 -9 18 13 49 14 -6 -15 24 20 -5 29 -7 39 -14 27 26 -26 -4 28 34 31 48 32 -1 -12 -2 -19 38 -38 -8 -18 41 -29 43 50 47 -33 -30 -44 -31 -13 -25 -23 55 -32 -46 56 -21 -45 61 -60 -57 -54 -42
right_child=2 4 3 5 11 17 36 9 -10 -11 33 12 22 15 -16 -17 21 35 -20 52 -22 51 -24 42 25 -27 -28 40 46 30 53 45 -34 -35 -36 -37 37 -39 -40 -41 62 -43 44 57 54 -47 -48 -49 -50 -51 -52 -53 58 -55 -56 60 -58 -59 59 -61 -62 -63 -64
leaf_value=0.02112343523760157 -0.0027741604061934317 -0.04548165144382986 0.014873308947818369 0.007650723453337907 -0.0087255137677386303 0.017081285548860851 -0.0030985253219599392 0.10078625057184404 -0.010379640146856318 0.0081248129757508433 -0.067385327457228875 -0.11169868432058935 -0.092176632043576789 -0.041910299962637405 -0.028835812889468435 0.034819821877614753 -0.018401622886902152 0.0048572775284835721 0.038555425640826362 0.0050792238254146272 -0.061345281556553354 0.003587271312555592 0.019062339002968075 0.024688819889564312 0.025680977472767999 0.0036813709960269608 -0.017898486429598921 -0.010169853870613747 -0.096310420649534975 -0.00032814395747932318 0.0060667167629774666 -0.0061267706168083962 -0.0017136224167837869 0.030966221897717784 -0.016828842369427676 0.043829605750982069 0.011336602745209264 -0.046085246071339195 0.026415208744320073 -0.0039140939263112356 0.020775589977722341 0.0012844222990697407 0.004523662829769003 0.087214615394933956 0.0051968048095008329 -0.022422445900149874 0.0080754230611669951 -0.0007635249866907222 0.0096075690793735423 0.12332220864498279 -0.031811156669170622 -0.04926826225310859 0.11534797024423198 0.01905815202598218 0.052053672698803254 0.02676662042317525 0.026680660577567083 -0.096207433486083252 0.008421098068579904 0.031014865908226077 -0.013976910292320784 0.010858828485447777 0.096264732161141453
leaf_weight=774.1898966729641 66915.761340111494 1291.5216485708952 632.83898435533047 16536.817168220878 23115.353340625763 338.47389413416386 32115.226513728499 116.65219332277775 3137.1463356912136 681.62098416686058 175.0968824326992 4.9407865703105918 277.33375157415867 162.09374736249447 2395.9107889384031 800.20741088688374 1580.1707343906164 276.70767514407635 607.5688489228487 5306.4342426806688 116.16650156676769 12565.448707252741 46.1242955327034 349.19047717750072 1551.1800585836172 103420.36383984983 1798.9439643025398 2384.5243384689093 90.388814941048622 63042.059368014336 7486.2989075779915 5860.0107000917196 97936.875596746802 46.059548139572144 1826.0914144665003 1370.5447326898575 3829.6519618928432 314.00559641420841 660.6893407702446 14934.799691781402 7.5960189104080191 40656.680640757084 12650.465728834271 94.375262826681137 14180.974274605513 1291.9460505992174 36.030073896050453 44026.041523888707 2777.7458694130182 47.157804876565933 97.988820493221283 80.945272907614708 5.2162187695503235 1425.4252983927727 65.676098540425301 39.225936979055405 307.36185076832771 3.4697042554616919 233.0197715908289 580.22702161967754 460.1789158731699 1094.1952646821737 35.657575070858002
leaf_count=3098 267706 5198 2537 66366 92767 1375 128520 482 12579 2730 702 20 1117 653 9658 3213 6322 1123 2475 21278 466 50290 186 1411 6222 414232 7202 9542 373 252235 29967 23453 391818 186 7306 5597 15340 1262 2652 59760 31 162707 50611 387 56776 5174 146 176157 11118 189 394 325 21 5707 263 157 1235 14 937 2337 1842 4390 154
internal_value=0 -0.00183142 0.00139012 0.00353115 -0.00574317 0.0102551 -0.00301618 -0.014159 -0.0206164 0.0216655 0.00803724 -0.0100239 -0.0517119 -0.00943249 -0.0106142 0.0218951 0.00257264 0.0285789 0.00874594 -0.000400532 -0.00295772 -0.00159273 -0.0763142 -0.000431211 0.0037036 0.00400646 -0.00937007 -0.00172591 -0.00326392 -0.00076282 0.00105155 -0.00204363 -0.00153451 -0.046902 -0.00314752 0.037283 -0.00143862 0.00698519 -0.00250359 -0.00530028 0.000732525 0.000649844 0.00159689 0.024588 0.00142021 -0.00907046 -0.0665599 0.0004166 9.11658e-05 0.101034 0.0123082 0.00324896 0.00775151 0.00814469 0.00541281 0.00486999 0.00626193 0.0807102 0.0169614 0.0245411 -0.0107767 0.0113546 0.0830076
internal_weight=0 257616 339453 156032 68995.6 19467.4 42146.5 5226.94 4428.67 798.273 17365.5 26849.1 375.557 26473.6 25511.3 962.301 136565 2101.89 17144.4 188620 454.64 29161.4 323.458 183421 107403 104972 2431.78 111953 68868.3 180595 74731.5 105863 98711.1 221.156 68741.9 1647.25 36919.6 4143.66 32775.9 16515 43084.5 43041.2 71468.2 545.024 70923.2 7151.96 126.419 56676.5 65819.8 52.0986 447.179 12646.4 8025.86 8911.72 14246.7 6113.2 5613.8 97.845 1912.66 813.247 499.405 1099.41 43.2536
